l,a,y,e,r,1
0.028251169249415398,-0.14184688031673431,-0.022517116740345955,-0.11809786409139633,-0.054539233446121216,-0.06228919327259064,-0.14819926023483276,-0.18372434377670288,-0.11861526221036911,0.08431828767061234,0.05246347934007645,0.18851228058338165,-0.014676273800432682,-0.09475813806056976,0.17685773968696594,-0.03902449086308479,0.13987889885902405,-0.19137100875377655,0.049840133637189865,0.10186257213354111,0.1755588948726654,-0.1023460254073143,0.11000829190015793,-0.1390259563922882
0.20189684629440308,0.0699705183506012,-0.016293911263346672,0.17747536301612854,-0.08300122618675232,-0.1667790710926056,-0.2965424358844757,-0.19410927593708038,-0.07064280658960342,-0.10707736760377884,0.14455825090408325,0.09553557634353638,0.04472837597131729,-0.04283296316862106,-0.2613207697868347,0.04427405819296837,0.13014638423919678,-0.12403934448957443,0.1440524160861969,0.0001650163030717522,0.2737326920032501,-0.08870644122362137,-0.015092321671545506,0.18611584603786469
0.1273553967475891,0.06720855832099915,0.15194056928157806,-0.18227198719978333,0.18473708629608154,-0.05409553274512291,0.20539431273937225,-0.21037255227565765,0.16946017742156982,0.08495204895734787,0.16515325009822845,-0.04037100821733475,0.1936570405960083,0.11494875699281693,-0.0015406475868076086,0.00876332726329565,0.06407422572374344,0.06332440674304962,-0.15308326482772827,0.16132456064224243,-0.0011313657741993666,-0.024460138753056526,0.20835690200328827,0.16177496314048767
-0.1821681559085846,0.01214487012475729,0.02588961459696293,0.07376836985349655,-0.11377374827861786,0.26398971676826477,-0.027631841599941254,0.13847891986370087,0.18515647947788239,-0.04042065516114235,-0.019130825996398926,0.10341093689203262,-0.15294812619686127,-0.048682887107133865,-0.003173734759911895,0.20702123641967773,-0.21824076771736145,-0.10214361548423767,-0.12589305639266968,0.09848581254482269,-0.03224976360797882,-0.029846809804439545,0.10610915720462799,0.018690232187509537
-0.09730198979377747,-0.10987896472215652,0.22797131538391113,0.19961851835250854,-0.053913433104753494,-0.05673021078109741,0.07772467285394669,0.12978696823120117,0.18067841231822968,-0.2186284363269806,-0.09654488414525986,-0.21915583312511444,-0.22299332916736603,0.16418711841106415,-0.12071982771158218,-0.1050548106431961,-0.00382906012237072,0.15915419161319733,0.027298783883452415,-0.2631553113460541,0.07474075257778168,-0.14170300960540771,-0.17995506525039673,0.19572238624095917
0.07597266137599945,0.08434169739484787,0.016220029443502426,0.22727888822555542,-0.056131526827812195,-0.19555309414863586,-0.062309831380844116,0.13995109498500824,-0.01271171122789383,0.1140325516462326,-0.16139759123325348,-0.1429315209388733,0.1836051642894745,-0.034136347472667694,0.11339384317398071,0.10037408769130707,-0.06514529883861542,0.1208522841334343,-0.20104239881038666,0.04510323703289032,-0.17887578904628754,0.05686049535870552,0.15946269035339355,-0.05854400619864464
0.11243394762277603,0.06760185211896896,-0.20352262258529663,-0.1772385686635971,0.2194720208644867,0.23313909769058228,-0.19681088626384735,0.15433958172798157,-0.20745313167572021,-0.1562204360961914,0.051631394773721695,-0.17536358535289764,-0.1627565324306488,-0.17965556681156158,0.031031761318445206,-0.10666064918041229,-0.18855611979961395,0.17268559336662292,0.09263463318347931,-0.06410474330186844,-0.19885163009166718,0.13611465692520142,0.055135536938905716,-0.1353490948677063
0.018129775300621986,-0.011422872543334961,-0.2226947844028473,-0.3305116891860962,-0.1791801154613495,-0.18139217793941498,-0.09865152835845947,0.14526154100894928,0.10324793308973312,-0.2874821424484253,-0.08334478735923767,0.1793891340494156,0.08967559784650803,0.026354389265179634,-0.13624060153961182,-0.04291002079844475,0.15022806823253632,0.16920678317546844,0.22567710280418396,0.10013726353645325,0.10524497181177139,-0.14827817678451538,-0.11172079294919968,0.17732703685760498
-0.08439698070287704,0.0917840301990509,-0.15915575623512268,-0.18784700334072113,-0.1209423765540123,-0.02197246067225933,-0.2008219063282013,0.14575178921222687,0.010933286510407925,-0.14998948574066162,0.012798045761883259,0.11505933851003647,-0.14611954987049103,-0.03442075103521347,-0.04704368859529495,-0.12016955763101578,0.11667938530445099,-0.18125449120998383,0.13204079866409302,0.1166478618979454,0.09764987230300903,0.09759494662284851,-0.16278278827667236,0.18735750019550323
-0.13891837000846863,0.09446056187152863,0.14555934071540833,-0.07276631146669388,-0.19029344618320465,0.11455243080854416,0.07778932899236679,-0.05342325195670128,0.13678888976573944,0.049154989421367645,-0.10741644352674484,0.06613168120384216,-0.13012154400348663,-0.06821455806493759,-0.1860632747411728,-0.0957612693309784,0.17971593141555786,0.11902913451194763,-0.11623377352952957,-0.1255922168493271,0.13118034601211548,0.07292034476995468,0.1276279240846634,0.028486177325248718
0.15077844262123108,0.02177068032324314,0.036408014595508575,-0.19089294970035553,0.0894341692328453,0.10910101234912872,0.025566909462213516,-0.061936940997838974,-0.12120368331670761,-0.2888370454311371,0.1350191980600357,-0.18257631361484528,-0.003689306555315852,-0.018878960981965065,-0.19105671346187592,-0.08283808827400208,0.023671932518482208,0.04528474807739258,0.02942619100213051,-0.04340309277176857,0.22244448959827423,-0.15419064462184906,-0.20054976642131805,-0.04649293050169945
-0.089976467192173,-0.03628714010119438,0.044720422476530075,-0.03733651712536812,0.06455253064632416,-0.2340858429670334,-0.027748240157961845,0.06888391822576523,0.040629204362630844,-0.07402567565441132,-0.15992741286754608,0.14716655015945435,-0.19660760462284088,0.08282466977834702,0.16980476677417755,0.08173688501119614,0.12397366762161255,-0.0828905701637268,-0.20317506790161133,0.21252600848674774,-0.09170085191726685,0.016077501699328423,0.1637885719537735,-0.07672765851020813
0.13472279906272888,0.06636907905340195,0.09860208630561829,-0.16800712049007416,-0.11685487627983093,-0.10133795440196991,-0.17277060449123383,0.0642242431640625,0.15704616904258728,0.2646164298057556,0.16784974932670593,0.128460094332695,-0.010151179507374763,0.04220625013113022,-0.18521563708782196,0.0745978131890297,-0.018999172374606133,0.03775593638420105,-0.041028350591659546,-0.05583389475941658,-0.06529797613620758,0.14574383199214935,-0.0039048895705491304,-0.09487661719322205
-0.05320177227258682,0.11805863678455353,-0.07821879535913467,-0.21279358863830566,-0.22246886789798737,0.11762835830450058,-0.056792229413986206,0.06488481163978577,0.0442650131881237,0.0017545294249430299,-0.0036564392503350973,-0.15369564294815063,-0.1148054227232933,0.09107387810945511,0.1503632515668869,0.061446405947208405,0.03281506523489952,-0.12501995265483856,0.16116303205490112,-0.010794602334499359,0.025921352207660675,-0.1750260293483734,0.015284248627722263,-0.20028099417686462
-0.03602086752653122,0.11606991291046143,0.2291775494813919,0.09787169843912125,0.12677067518234253,0.23953284323215485,0.18606089055538177,0.02719348669052124,-0.11732944846153259,0.12466192245483398,-0.024991575628519058,-0.003963143564760685,0.1318877786397934,0.11127366125583649,0.1524478644132614,-0.19778022170066833,-0.04981435462832451,-0.16863298416137695,0.08050117641687393,0.02081671915948391,0.19441311061382294,-0.09382206946611404,-0.010348853655159473,-0.09956157952547073
0.1403360664844513,-0.11488085985183716,0.10657132416963577,-0.1353262960910797,0.07320504635572433,-0.26492372155189514,-0.09602062404155731,0.13150155544281006,-0.08289505541324615,0.11618215590715408,0.3294210731983185,0.2929200530052185,0.13584071397781372,-0.09358028322458267,-0.22193576395511627,-0.2077813744544983,0.03754907846450806,0.1253608763217926,0.1950373649597168,-0.09123121201992035,0.10163412988185883,-0.13353639841079712,-0.18672047555446625,-0.20403248071670532
-0.06124996021389961,-0.1322428286075592,0.18736515939235687,-0.05488010123372078,-0.0067697553895413876,-0.13799335062503815,-0.21211043000221252,0.196692556142807,0.19556453824043274,0.1653573215007782,0.20944844186306,-0.13530078530311584,0.10959608852863312,-0.12256758660078049,-0.06389500945806503,0.04308817908167839,-0.030152074992656708,0.012048623524606228,-0.14123138785362244,-0.14163319766521454,-0.018075698986649513,0.08070521056652069,0.10779939591884613,0.07785271853208542
0.02039598673582077,-0.09972306340932846,0.2803037762641907,0.2144589126110077,0.008080508559942245,0.05425005033612251,-0.13189199566841125,0.06858906149864197,0.1001867800951004,0.37212687730789185,0.2315986007452011,0.13291165232658386,0.13402964174747467,0.10003943741321564,0.021605083718895912,-0.13027186691761017,-0.06473921984434128,-0.15336841344833374,-0.16275933384895325,0.04264300316572189,-0.2017030268907547,0.1489228755235672,0.04747401177883148,-0.11815646290779114
-0.03291207179427147,-0.07548577338457108,-0.0266132690012455,-0.16560806334018707,0.07971862703561783,-0.14916084706783295,0.0803389847278595,0.14319626986980438,0.06010035425424576,-0.25167521834373474,0.05256073921918869,0.01745455712080002,0.17285583913326263,-0.14153356850147247,0.08141030371189117,-0.013957018032670021,-0.03029978834092617,-0.10238701105117798,0.1342930644750595,0.014228042215108871,-0.02720453217625618,0.06775961071252823,-0.057889919728040695,0.025782492011785507
0.003971850033849478,-0.05648830160498619,-0.03693331032991409,-0.22665002942085266,-0.13583628833293915,0.14884138107299805,-0.09269252419471741,0.02302950620651245,-0.04162706062197685,-0.1851779967546463,-0.07303337752819061,-0.028163902461528778,0.0044351969845592976,0.11831194162368774,0.14742988348007202,-0.05122974142432213,0.11757142841815948,-0.09511501342058182,0.08698852360248566,0.14446257054805756,0.16436251997947693,-0.2110479772090912,-0.07729978114366531,-0.04888444393873215
0.2142823338508606,-0.10381454229354858,-0.02564525045454502,0.05496090650558472,-0.026955407112836838,-0.04900971055030823,-0.24220982193946838,0.011234675534069538,-0.13737459480762482,-0.06759651005268097,0.10090307146310806,0.23730896413326263,0.1608271449804306,-0.004456939175724983,-0.19159869849681854,-0.09163737297058105,0.2239968478679657,-0.10186970233917236,0.08641839772462845,-0.09459535032510757,0.12506996095180511,-0.142944797873497,-0.2324959635734558,0.07221976667642593
-0.053555890917778015,-0.03947312384843826,0.05178298428654671,-0.23266717791557312,-0.12800511717796326,-0.12031950056552887,-0.05107017606496811,0.09680595993995667,-0.06260468810796738,-0.017165256664156914,0.13929340243339539,-0.11760545521974564,-0.0990464836359024,-0.18689316511154175,-0.11789941787719727,0.029543260112404823,0.15951234102249146,0.14857085049152374,-0.04798674210906029,0.06506655365228653,0.0646163746714592,-0.034497737884521484,-0.17031551897525787,-0.1966545432806015
0.08690283447504044,-0.11717505007982254,-0.08986309170722961,0.07031339406967163,0.08477585017681122,-0.25125595927238464,-0.0021512536332011223,0.09898727387189865,0.1515575498342514,0.27823448181152344,-0.05643409490585327,0.20163778960704803,0.1366005390882492,0.1329968273639679,0.014745508320629597,0.06624441593885422,-0.09237518906593323,-0.16498655080795288,0.15392395853996277,0.014577609486877918,-0.07751355320215225,-0.005233777221292257,0.008279533125460148,-0.04088503494858742
0.07944552600383759,0.05091080069541931,-0.16428905725479126,-0.061904821544885635,-0.11519432067871094,-0.1371924877166748,-0.04490549489855766,0.006154101807624102,-0.008137376978993416,-0.11994174122810364,-0.13680540025234222,-0.0002694714057724923,-0.15692538022994995,0.04932683706283569,0.1425849199295044,-0.01755576767027378,-0.04419005289673805,0.0025310704950243235,-0.09357163310050964,-0.05044121295213699,0.14194339513778687,0.011354547925293446,-0.17255383729934692,0.03185346722602844
0.06288615614175797,-0.13333362340927124,0.2160956859588623,0.2335674911737442,-0.21701014041900635,-0.15338565409183502,0.10899713635444641,0.003928721882402897,0.20259244740009308,0.2387148141860962,0.20129245519638062,0.07120492309331894,-0.021038398146629333,0.1934257596731186,-0.032257821410894394,-0.2510967254638672,0.18761606514453888,-0.16332164406776428,-0.1972723752260208,0.12302221357822418,0.15245923399925232,-0.04998491704463959,-0.10820331424474716,0.12395269423723221
-0.17046713829040527,0.16982761025428772,-0.2363118827342987,-0.21868246793746948,0.18970699608325958,-0.035485439002513885,0.044849228113889694,-0.07576766610145569,0.14694181084632874,-0.10244029760360718,-0.1603117138147354,-0.21207578480243683,-0.049238648265600204,-0.015597355552017689,-0.00709541467949748,-0.1543913036584854,-0.1312754899263382,0.10443080961704254,0.16002635657787323,0.0712011530995369,-0.14316298067569733,-0.0901850238442421,-0.21628734469413757,0.13910330832004547
0.17505329847335815,0.005901632364839315,0.0005146449548192322,-0.12260967493057251,0.16414235532283783,0.07189858704805374,0.04210146144032478,0.05447721853852272,0.09401628375053406,-0.24853214621543884,-0.21993358433246613,-0.001478625345043838,-0.07503660023212433,-0.007758590392768383,-0.11906241625547409,-0.0756051316857338,0.07900357991456985,0.10078568011522293,-0.17369712889194489,0.08644627779722214,-0.16341499984264374,0.18993623554706573,-0.07248120754957199,0.04232276603579521
0.0156440120190382,0.009589902125298977,0.0013153254985809326,0.004832107573747635,0.20607177913188934,-0.0818585753440857,-0.11530286818742752,0.19186969101428986,-0.05477120354771614,-0.017579076811671257,-0.1066318228840828,0.13308487832546234,-0.13376016914844513,0.032146308571100235,0.13197804987430573,-0.003626618767157197,-0.18566182255744934,0.1400468498468399,0.16491952538490295,-0.018529240041971207,-0.08490842580795288,0.09584832936525345,-0.13089312613010406,0.19296789169311523
0.09092141687870026,0.1318913698196411,0.12051939964294434,0.13313589990139008,0.023581115528941154,0.11917958408594131,-0.0553402341902256,-0.13342322409152985,-0.24516533315181732,0.12029587477445602,-0.02298728935420513,0.22376962006092072,0.14024439454078674,-0.08623839169740677,0.027499934658408165,-0.24721448123455048,0.23805972933769226,-0.13286367058753967,0.373302698135376,0.3743777573108673,-0.016195716336369514,-0.03039683774113655,0.07727457582950592,0.132133349776268
0.03001183271408081,-0.019424475729465485,-0.10123077780008316,0.16894462704658508,-0.11812858283519745,0.17047207057476044,0.17434199154376984,0.051837000995874405,0.17712542414665222,-0.01704629883170128,-0.26755061745643616,0.11315084993839264,-0.19602999091148376,-0.3052563965320587,0.05820945277810097,-0.06307326257228851,-0.20334984362125397,0.09947341680526733,0.10022682696580887,-0.046094492077827454,-0.10230499505996704,0.2224620282649994,-0.08118490129709244,-0.1291821002960205
0.1330159306526184,-0.026882711797952652,-0.016785262152552605,-0.06896396726369858,-0.19337104260921478,-0.018435100093483925,0.07963897287845612,-0.16659830510616302,-0.24190212786197662,-0.16200163960456848,-0.05767354369163513,0.1820913553237915,0.07817201316356659,-0.11571341753005981,-0.1905127316713333,0.13090327382087708,0.20386983454227448,-0.08982886373996735,-0.09112135320901871,-0.12325875461101532,0.1858365535736084,-0.10267935693264008,-0.22599497437477112,-0.21757304668426514
0.02073475904762745,-0.03906170651316643,0.1659357249736786,0.04052679240703583,0.1821201890707016,0.06110437959432602,-0.1080692932009697,0.19643498957157135,0.01724725030362606,0.18093454837799072,0.03735506907105446,0.10655905306339264,0.018904639407992363,0.11572793871164322,-0.008294360712170601,0.1555793285369873,-0.0665450468659401,-0.11033345758914948,-0.03832381218671799,0.2015736997127533,0.034919820725917816,0.10182034969329834,-0.1328536719083786,0.12416619807481766
0.021127087995409966,0.16440865397453308,-0.07592596113681793,-0.08041775226593018,0.0338381752371788,0.21860899031162262,0.13344204425811768,0.0907304435968399,0.09858173877000809,-0.025826741009950638,0.27092552185058594,0.013766329735517502,0.08489120006561279,0.10372337698936462,0.20444996654987335,-0.05917670577764511,0.08112376183271408,-0.21599552035331726,0.15184681117534637,-0.18651770055294037,0.26132360100746155,-0.03718416765332222,-0.2214662730693817,-0.028111476451158524
-0.11983367800712585,-0.11083628982305527,0.17724604904651642,-0.05428924039006233,0.12254031747579575,0.02637033350765705,0.1262066662311554,0.1827172040939331,-0.012369847856462002,0.005003354977816343,0.11524230241775513,0.20628686249256134,0.1940261274576187,-0.10073452442884445,0.04264536499977112,-0.16906683146953583,0.15518102049827576,-0.04416337236762047,-0.02671879157423973,0.236040860414505,0.052549246698617935,-0.214850053191185,0.10478533804416656,0.06463346630334854
-0.10663333535194397,0.06131749600172043,-0.17828527092933655,0.04793492704629898,0.05057915300130844,0.2634555697441101,-0.1750127077102661,0.1541270911693573,-0.16794446110725403,0.03449290245771408,-0.09702400118112564,0.1273697465658188,0.18781636655330658,0.10571501404047012,0.009762516245245934,-0.0685398280620575,-0.1604551374912262,-0.1870419681072235,0.13672591745853424,0.2826620042324066,-0.18755517899990082,0.0855507105588913,-0.21628239750862122,0.002607855247333646
-0.01922905258834362,0.17658963799476624,0.005020049400627613,-0.15006420016288757,-0.016199711710214615,-0.13971389830112457,-0.053419165313243866,-0.06651903688907623,-0.17925845086574554,0.019369326531887054,-0.011277389712631702,-0.14650748670101166,0.10820920020341873,-0.1213320642709732,0.06041466444730759,0.14729173481464386,-0.05154375731945038,0.1594279706478119,0.14461955428123474,0.01478192862123251,0.1639818698167801,-0.08922892808914185,-0.1695156693458557,-0.08699094504117966
0.20438571274280548,0.01217624917626381,0.16053441166877747,0.03247920796275139,0.16364622116088867,0.14525556564331055,0.18663758039474487,0.1928168088197708,-0.03784612938761711,-0.11555982381105423,-0.014280579052865505,-0.1145123541355133,-0.07902959734201431,-0.013276515528559685,-0.13959719240665436,-0.18601563572883606,-0.0034254216589033604,-0.12774395942687988,0.0940636545419693,0.08410671353340149,-0.030700817704200745,-0.18260368704795837,0.12959498167037964,0.10413219779729843
-0.010343189351260662,-0.1624719649553299,0.02247556857764721,-0.025766976177692413,0.16853897273540497,0.29895323514938354,-0.21825259923934937,0.12275685369968414,0.13161297142505646,0.01952420547604561,-0.19859163463115692,-0.12690307199954987,-0.06612932682037354,0.015552659519016743,0.15195299685001373,0.2178182601928711,0.16071048378944397,-0.1425890475511551,-0.027875008061528206,0.1594075858592987,-0.11740005016326904,0.17988461256027222,-0.004547376185655594,-0.10336826741695404
-0.13457700610160828,0.10234039276838303,0.03372983634471893,0.15666602551937103,-0.245570570230484,-0.08845357596874237,-0.0650237500667572,-0.002635960467159748,0.12049487978219986,0.08069703727960587,0.21575522422790527,0.17341873049736023,0.2560989558696747,0.21869277954101562,-0.11397502571344376,-0.11454281955957413,-0.09926322847604752,-0.08416714519262314,0.12958261370658875,-0.08865545690059662,0.07530918717384338,-0.21334083378314972,0.07885238528251648,0.12964890897274017
0.04422302544116974,-0.06644552201032639,0.17825132608413696,0.09394960850477219,0.09620537608861923,0.12902487814426422,-0.028149425983428955,0.07851025462150574,0.03694594278931618,-0.12613847851753235,0.13148458302021027,-0.2112184464931488,0.062712661921978,0.15289510786533356,0.15894879400730133,-0.18265902996063232,0.07750945538282394,0.17692053318023682,-0.10639055073261261,-0.14438724517822266,0.12254060059785843,0.21988064050674438,-0.028803806751966476,0.13262839615345
0.0729592815041542,0.20023123919963837,-0.22546078264713287,-0.34057897329330444,0.11112835258245468,-0.22178564965724945,-0.08714720606803894,0.16288697719573975,0.1233726218342781,0.18280217051506042,0.09258823096752167,-0.07504422217607498,0.1030893623828888,0.12156795710325241,0.047901351004838943,0.029686516150832176,0.05523039028048515,0.09485922008752823,0.06412222236394882,0.16717493534088135,0.12977276742458344,-0.06777289509773254,-0.16743165254592896,-0.13464096188545227
-0.05907035991549492,-0.014509638771414757,0.0638672336935997,-0.16413366794586182,0.057452019304037094,-0.09004581719636917,-0.015329809859395027,-0.031244751065969467,0.03125780075788498,-0.08580388873815536,-0.09236018359661102,-0.24407511949539185,-0.03071505017578602,-0.21437004208564758,0.07908853888511658,-0.13382425904273987,0.08783207088708878,0.14564335346221924,0.17481347918510437,0.11888812482357025,0.07950060069561005,0.06503764539957047,-0.04416818544268608,0.16729818284511566
-0.09014652669429779,0.040766358375549316,-0.10052210837602615,-0.18874618411064148,0.13507230579853058,0.0909535139799118,-0.10216505080461502,0.11744967848062515,0.04065742343664169,0.20193932950496674,-0.1238684430718422,-0.12899249792099,-0.011290032416582108,0.09650900959968567,-0.05759333446621895,0.013572771102190018,-0.003115598578006029,0.1573769450187683,0.11010139435529709,-0.11385967582464218,0.1546524614095688,0.1442316770553589,-0.04227249696850777,-0.021340521052479744
0.06379664689302444,-0.10849718749523163,0.03833090886473656,0.053835589438676834,-0.10968632996082306,0.13288965821266174,-0.022508446127176285,0.07881113886833191,-0.029455963522195816,0.21777819097042084,-0.10230100899934769,0.03902784362435341,-0.08201269805431366,-0.11687321215867996,-0.007598676718771458,0.17204789817333221,0.023010723292827606,-0.059807658195495605,-0.04896009713411331,-0.34122180938720703,-0.096978560090065,0.1280013471841812,0.17293527722358704,0.19572658836841583
0.03919418901205063,0.044626131653785706,-0.030457966029644012,0.09207864105701447,0.15708746016025543,0.32463404536247253,0.021032752469182014,-0.04001238942146301,0.210042342543602,-0.16030248999595642,-0.1995079070329666,-0.07874076813459396,-0.1820753961801529,0.11416520923376083,0.0019259616965427995,0.018850725144147873,-0.09646301716566086,0.17711108922958374,0.13194946944713593,-0.131281316280365,-0.0226177666336298,0.060505401343107224,0.20554661750793457,-0.07570765912532806
0.14849768579006195,0.205214723944664,0.10602359473705292,-0.0616115927696228,-0.1837710291147232,-0.05143491551280022,-0.022805817425251007,-0.15556247532367706,-0.15296781063079834,0.06855963915586472,0.06923137605190277,0.006769421976059675,0.025190329179167747,0.17767895758152008,0.07607782632112503,0.1650230586528778,0.021897926926612854,0.006511428393423557,0.15116523206233978,0.1201198473572731,0.00956970639526844,-0.1417798548936844,0.023391660302877426,-0.18535278737545013
0.030614903196692467,-0.02067360281944275,-0.16547755897045135,-0.10691091418266296,0.07068128138780594,0.116465263068676,-0.14134328067302704,0.1774502396583557,0.028782425448298454,0.07006435096263885,-0.14228759706020355,-0.01223903801292181,-0.10289691388607025,0.009446623735129833,0.012541445903480053,-0.00541275879368186,0.1551796942949295,-0.1586904525756836,0.16806943714618683,-0.2502720355987549,0.03365011140704155,-0.14544707536697388,-0.25610727071762085,0.02626843750476837
0.0623248815536499,0.1834161877632141,-0.2013138085603714,-0.297398179769516,-0.1697930544614792,-0.2481035590171814,-0.17209112644195557,-0.1812237948179245,0.09337469190359116,-0.034484777599573135,-0.10488542169332504,0.18017740547657013,-0.06503905355930328,-0.149082213640213,-0.01656421646475792,-0.10907172411680222,0.21100357174873352,0.07947087287902832,0.09595443308353424,0.07147933542728424,0.14033792912960052,0.13157786428928375,-0.08836834877729416,-0.08064816147089005
-0.14216354489326477,0.022116128355264664,0.0931505411863327,0.14829666912555695,0.1583094745874405,0.3089877963066101,0.14079444110393524,-0.18902619183063507,0.20227639377117157,0.10201344639062881,-0.24166883528232574,-0.2079283446073532,-0.024322690442204475,-0.22198058664798737,-0.09704671055078506,0.09205350279808044,-0.12353616952896118,0.021175265312194824,0.06352657079696655,-0.17981041967868805,0.03645835071802139,0.0776461735367775,-0.18265800178050995,0.12288976460695267
-0.10534872859716415,-0.035226475447416306,0.05662504956126213,0.02535090781748295,-0.014685971662402153,-0.12623979151248932,0.0736091211438179,-0.1649610549211502,0.10639386624097824,-0.03750614821910858,-0.042293183505535126,-0.17012113332748413,-0.1703190803527832,0.01884516328573227,-0.15686893463134766,-0.1761545091867447,-0.006975230295211077,-0.10543707758188248,-0.10035976022481918,0.09630153328180313,-0.18984197080135345,-0.13480715453624725,0.06850706785917282,-0.10793571919202805
-0.20836184918880463,0.07585811614990234,-0.0010048997355625033,0.23037941753864288,0.18780429661273956,0.21335762739181519,-0.10690447688102722,-0.057392049580812454,0.03807022422552109,0.20710384845733643,-0.159124493598938,-0.19797837734222412,-0.16748343408107758,-0.040349338203668594,0.18722908198833466,0.10216989368200302,-0.022314995527267456,0.12194690853357315,0.06103413179516792,0.12520968914031982,-0.10909102112054825,-0.11644397675991058,0.2228485494852066,0.13319538533687592
0.20686732232570648,0.12533891201019287,0.185407355427742,-0.24010135233402252,-0.0011447968427091837,-0.04840964078903198,-0.1217883750796318,-0.026327911764383316,-0.14446453750133514,0.19320514798164368,-0.009785570204257965,-0.035528723150491714,-0.18989193439483643,-0.08171426504850388,-0.2028243988752365,0.10235052555799484,-0.2017069309949875,-0.21037159860134125,-0.044130850583314896,-0.04008784890174866,-0.1858704388141632,0.08594056963920593,0.1201692447066307,0.1607602834701538
0.090549997985363,0.1141250878572464,-0.19087301194667816,-0.1290392279624939,0.06320216506719589,-0.005008282605558634,-0.15920737385749817,-0.038715895265340805,0.04759662225842476,-0.09431029111146927,-0.010085292160511017,0.12570016086101532,0.11625409126281738,0.10839632153511047,-0.16348284482955933,-0.041503969579935074,0.027459733188152313,0.07054369896650314,0.1279933601617813,-0.07218065112829208,0.07629655301570892,-0.04301099851727486,-0.12170679867267609,0.08927693963050842
-0.16821888089179993,0.04636315628886223,-0.18855534493923187,-0.18275052309036255,0.16399866342544556,-0.05118923634290695,-0.1603136956691742,-0.19866900146007538,0.00666056526824832,-0.013761494308710098,-0.020552104339003563,0.15972359478473663,0.004331609234213829,-0.03744656592607498,-0.15302829444408417,-0.10806944221258163,0.08634930104017258,0.012004057876765728,-0.10738856345415115,0.19068801403045654,0.17329305410385132,-0.16510795056819916,-0.1579120010137558,0.14670200645923615
0.0977584719657898,0.012347646057605743,-0.1503797024488449,0.0522308312356472,-0.06382502615451813,0.06811683624982834,0.11940059065818787,-0.14718078076839447,-0.12432434409856796,0.11373762786388397,0.179888054728508,0.18740345537662506,-0.10101690888404846,-0.0035977240186184645,-0.15836958587169647,-0.08640865981578827,0.18769671022891998,0.023210084065794945,0.0817716121673584,0.10084757953882217,-0.03996708244085312,-0.10916752368211746,0.06930473446846008,0.13016289472579956
0.08746691048145294,-0.16936171054840088,0.2047555297613144,0.2431209832429886,0.13961060345172882,0.13495095074176788,0.14019636809825897,0.13070358335971832,0.04107528179883957,0.3198765516281128,-0.08781658858060837,0.19702807068824768,0.1185721829533577,-0.017814457416534424,0.09349832683801651,0.17114250361919403,-0.07315423339605331,-0.18413123488426208,-0.27123165130615234,0.08594632893800735,-0.15721428394317627,-0.1947038769721985,0.0223301462829113,0.17148496210575104
0.06809213757514954,-0.05928865447640419,0.07061746716499329,0.05092434212565422,0.1792191118001938,0.12923797965049744,-0.015265659429132938,0.014141770079731941,0.030729234218597412,-0.0989285483956337,0.08356612920761108,-0.24580855667591095,-0.10690643638372421,-0.1353602558374405,-0.18679963052272797,-0.13935691118240356,-0.19243328273296356,0.15844638645648956,0.013400089927017689,0.15621450543403625,-0.13084571063518524,0.19974735379219055,0.11577856540679932,-0.05463660880923271
0.00284193130210042,0.051792554557323456,-0.22506029903888702,-0.010214848443865776,0.05711027979850769,-0.0516069158911705,0.19054436683654785,-0.2449883371591568,0.06408931314945221,0.13125692307949066,0.11046776920557022,0.16628892719745636,-0.12538564205169678,0.17189426720142365,-0.10395706444978714,-0.1758025884628296,0.28285667300224304,-0.032714542001485825,0.2922108471393585,0.19072337448596954,0.14375701546669006,-0.17773883044719696,-0.13503584265708923,0.16260476410388947
0.21008920669555664,-0.180952250957489,0.20916339755058289,0.09309244900941849,0.2056211531162262,-0.11921500414609909,0.038115985691547394,0.1500152200460434,0.05592441186308861,-0.13892868161201477,-0.05572555959224701,0.07673202455043793,0.10861063748598099,-0.08333911001682281,0.01596859283745289,0.08315987139940262,0.029102573171257973,0.055720411241054535,-0.021192701533436775,0.07682665437459946,-0.17964570224285126,-0.030040403828024864,0.12935571372509003,-0.02408151887357235
0.15539202094078064,0.09110486507415771,0.15430867671966553,0.005267855245620012,0.010332352481782436,-0.0026337632443755865,-0.029048684984445572,-0.0245536919683218,0.1986016482114792,-0.11550267040729523,0.2808269262313843,-0.05542205274105072,-0.16192716360092163,-0.08274777978658676,0.04314083978533745,-0.12940765917301178,0.007823358289897442,-0.025957362726330757,-0.03621203452348709,0.05339154601097107,0.07497277110815048,-0.1850682944059372,-0.08582402765750885,-0.09640127420425415
-0.0538334883749485,-0.09791096299886703,0.08358103781938553,0.18637530505657196,-0.17566338181495667,0.2892170250415802,-0.1189572662115097,0.11638890206813812,0.00027412528288550675,-0.15950171649456024,0.15387457609176636,-0.017705148085951805,-0.23213998973369598,-0.25952836871147156,0.0871967077255249,0.043581388890743256,0.019671203568577766,-0.17378975450992584,-0.08622118085622787,0.15049044787883759,-0.10172675549983978,0.15394413471221924,-0.17912060022354126,0.013136924244463444
-0.14510545134544373,-0.04307377338409424,0.17666037380695343,0.30300700664520264,-0.16030177474021912,0.1951686441898346,-0.0040058474987745285,0.05889405310153961,0.18425557017326355,-0.2624126970767975,-0.06620339304208755,-0.2544730007648468,-0.07992318272590637,0.07653181254863739,-0.15271902084350586,-0.030621007084846497,-0.16283197700977325,0.004271843936294317,-0.11286648362874985,-0.14111705124378204,-0.15325184166431427,0.0793706476688385,0.05804698169231415,0.011536659672856331
-0.024968372657895088,-0.14105120301246643,0.07676205039024353,0.02617448940873146,0.01240166462957859,0.01524306833744049,0.14407064020633698,0.18995414674282074,-0.00836945977061987,0.18434689939022064,-0.04199555143713951,0.01890987530350685,0.07570222020149231,-0.08735767006874084,0.1488390564918518,0.05227633938193321,0.11130174249410629,0.22228139638900757,0.1145477145910263,0.0801384225487709,-0.03417353332042694,0.0642184466123581,0.10388593375682831,0.15515460073947906
-0.11308176070451736,-0.021251149475574493,0.07775157690048218,0.18798471987247467,0.08857326954603195,0.04594750329852104,-0.027278946712613106,-0.17819316685199738,0.12747226655483246,0.13749286532402039,0.15485090017318726,-0.12476395815610886,0.15870222449302673,-0.025218622758984566,0.168582946062088,-0.12070015072822571,0.016129275783896446,-0.16253618896007538,0.02086840756237507,-0.1469525247812271,-0.01096078660339117,-0.1635061800479889,-0.03139274939894676,0.025119148194789886
-0.06018272414803505,0.008275939151644707,0.09902237355709076,0.12458182126283646,-0.21499967575073242,-0.18638072907924652,0.018693583086133003,0.10746264457702637,0.18148648738861084,-0.30006134510040283,-0.0987628772854805,-0.0530649796128273,-0.13725046813488007,-0.07839739322662354,0.08840181678533554,-0.0835253894329071,-0.13720594346523285,0.04834916442632675,0.09739843755960464,0.1231723427772522,-0.02703528106212616,0.04942624643445015,0.26989468932151794,-0.21449345350265503
-0.0508318729698658,0.24729925394058228,0.016099002212285995,0.16960832476615906,-0.20778900384902954,-0.03796834498643875,-0.17749916017055511,0.1016954630613327,-0.16341732442378998,-0.0125075438991189,0.17551837861537933,0.10773510485887527,-0.19877058267593384,0.05327790603041649,-0.265434592962265,-0.04627794772386551,0.2013978213071823,0.05045528709888458,-0.14860455691814423,0.1849222034215927,0.007114574313163757,-0.2103816717863083,-0.23909267783164978,-0.19942080974578857
-0.04701739177107811,-0.13660980761051178,0.04332442954182625,-0.07239321619272232,-0.1356229931116104,0.14968562126159668,-0.12080564349889755,-0.2096399962902069,0.12269820272922516,-0.1281202733516693,0.08292078226804733,-0.1193835437297821,-0.00213466864079237,-0.14802682399749756,0.008555152453482151,0.029620954766869545,0.04803931340575218,-0.1779964566230774,-0.002591699128970504,0.15222863852977753,0.069107785820961,-0.05627593770623207,-0.15367566049098969,-0.08228956162929535
0.18913634121418,0.15534432232379913,0.02910001203417778,-0.033012524247169495,0.05737603083252907,0.4020504653453827,0.06768956035375595,0.16528156399726868,0.021722570061683655,-0.08866892755031586,0.06464273482561111,-0.21084795892238617,-0.07619191706180573,-0.08230588585138321,-0.11926515400409698,-0.07479403913021088,0.026100948452949524,0.05882181599736214,0.0016042107017710805,0.02279600501060486,0.01636596955358982,0.044068899005651474,0.05130951106548309,0.07659779489040375
-0.14792166650295258,0.1443757265806198,-0.06045125797390938,0.23915491998195648,-0.12200438231229782,0.17313840985298157,-0.1004818007349968,0.23482495546340942,0.008602432906627655,-0.05105563625693321,-0.20113329589366913,-0.20844069123268127,-0.0840270146727562,0.06702472269535065,0.21125023066997528,-0.12788236141204834,-0.12835022807121277,-0.08177506923675537,0.05739782378077507,-0.27845078706741333,-0.10704784095287323,0.18600012362003326,0.035190120339393616,0.156758651137352
0.16331057250499725,0.010770050808787346,-0.15573839843273163,-0.015519867651164532,-0.13990752398967743,-0.10814827680587769,-0.1260833591222763,-0.17903324961662292,0.14754627645015717,-0.12044785916805267,0.0006397405522875488,0.09587451815605164,-0.16532059013843536,-0.03410178795456886,-0.13282504677772522,-0.07695123553276062,-0.146137535572052,-0.18696464598178864,0.18635733425617218,-0.03991027548909187,-0.0033642728812992573,0.18934054672718048,-0.13595162332057953,-0.004367540590465069
-0.20080988109111786,-0.0919792503118515,-0.05604660511016846,-0.07525864988565445,0.14302274584770203,-0.10706531256437302,-0.2432508021593094,-0.036345191299915314,-0.011537156999111176,-0.07815688103437424,0.14865072071552277,0.12234967947006226,0.1803867667913437,-0.06467671692371368,0.16287198662757874,0.06028495356440544,-0.02324291318655014,-0.08663592487573624,-0.0579880066215992,-0.052979808300733566,0.03278403356671333,-0.16578826308250427,0.0800820142030716,-0.1646384745836258
0.09429600834846497,-0.1264491081237793,-0.037686094641685486,-0.051679305732250214,0.057888276875019073,-0.18099457025527954,-0.26993101835250854,-0.14142993092536926,0.15336668491363525,0.15447168052196503,-0.09490332752466202,0.14576540887355804,0.04628264531493187,0.023911111056804657,-0.2176048457622528,-0.11321385204792023,0.16861727833747864,-0.1255369484424591,0.03520498797297478,0.015301025472581387,-0.051453784108161926,0.05605267733335495,-0.2461356222629547,0.06019226089119911
0.09670472890138626,-0.024127446115016937,0.07429087162017822,0.05968330055475235,-0.19660496711730957,0.17602041363716125,-0.09256475418806076,-0.11170043051242828,-0.10586728900671005,-0.11055880784988403,0.14870470762252808,-0.04157828167080879,-0.19158652424812317,-0.03407490253448486,-0.0026074175257235765,0.09955812990665436,-0.05941971018910408,-0.005320581141859293,0.1277761310338974,-0.1580706536769867,0.06654193997383118,-0.12955214083194733,-0.007042305078357458,-0.14783969521522522
0.13765880465507507,0.13970057666301727,-0.14320501685142517,-0.11588554084300995,0.18799519538879395,-0.03927219659090042,0.011168420314788818,0.1492377519607544,0.1632937788963318,-0.11014928668737411,-0.02401573956012726,-0.08285237848758698,-0.018640335649251938,0.014167538844048977,0.017784418538212776,0.03504006192088127,0.0510987751185894,0.14892080426216125,-0.09767934679985046,-0.08222806453704834,-0.13112789392471313,0.10269709676504135,0.10521470755338669,-0.058959245681762695
0.03716278821229935,-0.07512812316417694,0.01592431217432022,-0.06645435839891434,0.01966755837202072,-0.07866071909666061,0.10368776321411133,-0.0409727580845356,0.2038092464208603,-0.2252952605485916,-0.012804518453776836,-0.17965377867221832,0.16715560853481293,-0.009596713818609715,-0.17848896980285645,0.0684276595711708,-0.20730376243591309,-0.04403560608625412,0.201039120554924,-0.0543212853372097,0.03319210931658745,-0.1821628361940384,-0.10097185522317886,-0.17026546597480774
0.13752061128616333,-0.014430285431444645,-0.10583623498678207,-0.2376897782087326,-0.03666975721716881,0.1364021897315979,-0.0015014491509646177,0.0585988350212574,-0.13982729613780975,0.13950662314891815,-0.13495777547359467,-0.0543108694255352,0.021416794508695602,-0.1964176595211029,-0.22692465782165527,0.22100743651390076,-0.06855575740337372,-0.15728746354579926,0.09680551290512085,0.23637042939662933,0.009270361624658108,0.0626869946718216,-0.21577130258083344,0.016320055350661278
-0.1756191998720169,0.1297380030155182,-0.10883937776088715,-0.1603490710258484,0.08139540255069733,-0.4096358120441437,0.01686115562915802,-0.014902633614838123,0.0683954507112503,0.152095764875412,0.3369930684566498,0.17926724255084991,0.1995270997285843,0.08745982497930527,-0.2611720561981201,-0.12808029353618622,0.05901774391531944,0.005348787643015385,-0.09288232773542404,0.07272154837846756,0.20352327823638916,-0.1867370307445526,-0.23509745299816132,0.04288443922996521
0.13912169635295868,0.14862407743930817,-0.04090239107608795,-0.05797753110527992,-0.009761464782059193,0.2384204864501953,-0.0763261467218399,-0.08397773653268814,-0.07506009936332703,-0.07232802361249924,-0.01742425002157688,0.1387789249420166,0.17973801493644714,-0.03509743884205818,0.15620964765548706,0.1050589457154274,0.07382871955633163,0.17152643203735352,0.045666057616472244,-0.13529817759990692,0.00872192531824112,0.13769716024398804,0.046883724629879,-0.12701737880706787
0.12785673141479492,-0.1390991061925888,-0.2107110470533371,0.13434986770153046,0.14740818738937378,0.29662007093429565,0.055251527577638626,0.19002847373485565,0.16595236957073212,0.01310398243367672,-0.02310011349618435,-0.05345367267727852,0.15973837673664093,0.13459518551826477,-0.016933754086494446,0.16673439741134644,-0.24853777885437012,0.1418650895357132,-0.22053882479667664,0.07316897064447403,-0.010357340797781944,-0.056631892919540405,-0.10052405297756195,-0.14843587577342987
-0.11508480459451675,-0.05986909568309784,-0.11433646827936172,-0.1497599482536316,-0.020808998495340347,-0.07898063212633133,-0.16664496064186096,0.06035000830888748,0.027037136256694794,-0.24757131934165955,-0.08761779218912125,-0.02027534693479538,-0.11561507731676102,-0.09131292253732681,-0.20003870129585266,0.2259017378091812,-0.1889112889766693,-0.17556482553482056,-0.1802491843700409,-0.14062100648880005,0.1677720993757248,0.20852214097976685,0.10060517489910126,0.11423113197088242
-0.0456126369535923,0.04796556383371353,0.0800544023513794,0.2868967056274414,0.04799265041947365,0.16630657017230988,-0.010343103669583797,-0.108729287981987,0.12739530205726624,0.05736182630062103,0.053543973714113235,0.11511766910552979,0.09847939759492874,0.14219406247138977,0.05014139041304588,0.05311004817485809,0.017122026532888412,0.04066923260688782,-0.14409023523330688,-0.07751671969890594,0.1449624001979828,0.1728169322013855,-0.08256899565458298,-0.18163032829761505
-0.17963293194770813,0.16929231584072113,-0.028351325541734695,-0.09489497542381287,-0.08593123406171799,-0.0873507559299469,0.13475748896598816,-0.1921900510787964,-0.08453111350536346,0.051918093115091324,-0.04330769181251526,0.017366569489240646,-0.12637878954410553,-0.0241260826587677,-0.19391125440597534,0.11791472136974335,0.144861102104187,-0.06287097930908203,0.06648047268390656,0.0039554559625685215,0.04570064693689346,-0.09546501189470291,0.07774601131677628,-0.07496276497840881
-0.17046761512756348,0.07500683516263962,-0.06091815233230591,-0.01053557638078928,0.11269429326057434,0.1825137734413147,-0.004637910518795252,-0.09782592952251434,0.1105009913444519,-0.08274997025728226,-0.06503429263830185,-0.021945450454950333,-0.12778586149215698,-0.19720958173274994,-0.06888055801391602,-0.07132650911808014,0.14794930815696716,-0.11599381268024445,0.05658940225839615,-0.07112476229667664,0.15567909181118011,-0.0260628629475832,0.14874452352523804,0.13097214698791504
-0.005054929293692112,-0.11854086071252823,0.017194613814353943,0.1118122860789299,0.07608584314584732,0.3288862407207489,-0.09611567854881287,0.16401635110378265,0.03715134039521217,-0.022328155115246773,-0.16882647573947906,-0.028606083244085312,-0.1931949406862259,-0.32005375623703003,0.13577516376972198,0.10839906334877014,0.09995067119598389,0.1427796632051468,0.13276685774326324,-0.01492640282958746,-0.10936656594276428,-0.08479021489620209,-0.15577128529548645,0.0013377140276134014
0.16504143178462982,-0.01956176571547985,-0.33527934551239014,-0.02602204494178295,0.12407760322093964,0.09439796954393387,-0.10488768666982651,0.021442275494337082,0.02522662654519081,-0.03993837535381317,-0.051390960812568665,-0.20801103115081787,-0.22918908298015594,-0.13112865388393402,0.16598373651504517,0.044793594628572464,-0.053735747933387756,-0.006995926145464182,0.1914515346288681,-0.022736143320798874,-0.06136459857225418,0.027851685881614685,-0.07829275727272034,-0.020304881036281586
-0.1263950765132904,0.1055668368935585,0.1203608512878418,0.16609451174736023,-0.13136428594589233,0.2264118194580078,0.014623695984482765,0.15289166569709778,0.1546386033296585,0.33400586247444153,-0.003424357157200575,-0.15580685436725616,-0.1459779590368271,-0.10670734196901321,-0.059073157608509064,-0.019812827929854393,0.11571330577135086,0.002327119465917349,-0.1295665055513382,0.037718337029218674,0.03343300521373749,-0.10756714642047882,0.0764390379190445,0.063296839594841
-0.06402145326137543,0.13671620190143585,0.1713251769542694,0.03517643362283707,0.16099564731121063,0.10392531007528305,0.011331364512443542,0.022176021710038185,0.04880724102258682,0.06959214061498642,-0.18160933256149292,-0.16840332746505737,-0.010428977198898792,0.03578954562544823,0.162979394197464,-0.0010104748653247952,-0.0579366497695446,0.06754378974437714,0.02822439931333065,0.06084710359573364,0.10200449824333191,0.0027925216127187014,-0.008373399265110493,-0.0006327050505205989
0.12445854395627975,0.003942284267395735,-0.03034549206495285,0.06604651361703873,-0.055645182728767395,-0.1309645026922226,-0.10595172643661499,0.07275883853435516,-0.026734687387943268,0.13189315795898438,0.09047471731901169,0.21309597790241241,0.08082034438848495,-0.04657873883843422,0.07717989385128021,-0.13826505839824677,-0.10845630615949631,0.05290026590228081,-0.11752765625715256,-0.004432988818734884,0.11372996121644974,-0.10382834821939468,0.05692172423005104,-0.11081866919994354
0.0005989616620354354,0.037618428468704224,0.1630948930978775,-0.09493984282016754,0.17541435360908508,0.05814780667424202,-0.05075095221400261,0.04940657317638397,0.15079456567764282,-0.0414402075111866,-0.12739871442317963,0.107828788459301,0.021458610892295837,0.14271478354930878,-0.024118518456816673,-0.10581571608781815,-0.013098313473165035,0.01635761745274067,-0.1605902463197708,0.019208895042538643,0.05827508866786957,-0.07180062681436539,-0.16060687601566315,0.00024982274044305086
0.09875436127185822,0.07479642331600189,-0.1703818291425705,-0.019564898684620857,0.10476677864789963,-0.028290489688515663,-0.09985880553722382,0.031597718596458435,-0.07133273035287857,0.11966364085674286,-0.2058621644973755,0.11349007487297058,-0.0805600956082344,0.13670241832733154,0.07405894994735718,-0.17990925908088684,-0.16432788968086243,0.17868532240390778,-0.11543437838554382,0.0440094918012619,-0.145334854722023,-0.11061764508485794,-0.11070680618286133,0.10594913363456726
-0.11683867126703262,-0.1259251981973648,0.04885440319776535,0.0038962755352258682,-0.06719235330820084,0.10567522048950195,0.131591334939003,0.16581758856773376,0.009144208393990993,-0.21756216883659363,0.1055602878332138,-0.018396079540252686,-0.03545000031590462,-0.26064103841781616,-0.009491778910160065,-0.08515854924917221,0.03456849232316017,0.13712641596794128,-0.06973374634981155,-0.021403655409812927,-0.15813040733337402,0.18277809023857117,-0.1923620104789734,-0.11049288511276245
-0.0802324041724205,-0.10436832904815674,0.12164071202278137,-0.11642134189605713,-0.13952459394931793,0.21848875284194946,-0.10330172628164291,0.08608265221118927,-0.0731746032834053,0.09137099981307983,-0.1715163290500641,0.03454133868217468,-0.14043091237545013,0.19335056841373444,-0.055833637714385986,-0.057087287306785583,-0.17531627416610718,-0.09667982161045074,-0.016062375158071518,0.03937793895602226,0.2092157006263733,-0.045784011483192444,-0.11564351618289948,0.071590356528759
0.1418185979127884,-0.09663541615009308,0.13406643271446228,0.17039711773395538,-0.05270901694893837,-0.11267869919538498,0.009383677504956722,0.08271228522062302,0.21862785518169403,0.0639755055308342,0.0012421960709616542,0.07325530797243118,-0.1882937103509903,0.00030758316279388964,-0.13003695011138916,-0.12116145342588425,-0.1205965206027031,-0.036226000636816025,0.0938858836889267,-0.1618403196334839,0.0016949103446677327,0.06752527505159378,-0.04006239026784897,-0.10808905214071274
0.23857751488685608,0.1354382187128067,0.0762162059545517,0.05350782349705696,-0.021529613062739372,0.17294950783252716,0.10086211562156677,-0.04350646212697029,0.023468883708119392,-0.24877357482910156,-0.04688027501106262,-0.04616159945726395,0.16593271493911743,0.10613270103931427,-0.19287170469760895,-0.11869118362665176,-0.04699854925274849,0.03517841175198555,-0.08731097728013992,0.23107995092868805,0.051383405923843384,0.14572171866893768,0.12365083396434784,0.15464664995670319
-0.010943325236439705,0.24836447834968567,0.08482685685157776,0.00715216901153326,-0.009035306051373482,-0.270767480134964,-0.054401200264692307,-0.10922528058290482,0.1297127902507782,0.04528820514678955,0.23932483792304993,-0.14620596170425415,-0.12265262752771378,-0.08398126065731049,-0.2525893747806549,-0.06550039350986481,0.20125526189804077,0.14202599227428436,-0.10207773000001907,0.30174365639686584,0.20475926995277405,-0.0490335188806057,-0.06954123079776764,0.042193617671728134
0.14489586651325226,0.14110679924488068,0.12087734043598175,-0.23374120891094208,-0.030857358127832413,-0.06323900818824768,0.011002212762832642,-0.005787523463368416,-0.07741577923297882,-0.11386439949274063,-0.10743483155965805,-0.16599629819393158,-0.17849652469158173,-0.11704599857330322,0.16384200751781464,0.0929071232676506,-0.0761074349284172,0.03079712949693203,0.018685126677155495,0.1751091331243515,0.15618616342544556,-0.10260152816772461,-0.26091626286506653,-0.06660158187150955
0.11846528202295303,0.16646002233028412,0.16063624620437622,-0.21904675662517548,-0.14570939540863037,-0.08943573385477066,-0.0651477798819542,0.11579928547143936,0.18896710872650146,0.13493965566158295,0.24354036152362823,0.31871092319488525,0.21312780678272247,0.06793581694364548,0.11079423129558563,-0.19511690735816956,0.1171526089310646,0.11375751346349716,-0.10851828753948212,-0.1106579527258873,0.21883822977542877,-0.11500903964042664,-0.11251430958509445,-0.08529093861579895
0.10540244728326797,-0.11691958457231522,0.14712035655975342,0.23996618390083313,0.07730883359909058,0.17836859822273254,0.05732819810509682,0.026980677619576454,-0.021784527227282524,0.2744375765323639,0.2709316909313202,0.09240994602441788,-0.09421675652265549,-0.05635695159435272,-0.1650369018316269,-0.05496091768145561,0.1148916631937027,0.1917528659105301,-0.19161361455917358,0.029331272467970848,0.09936993569135666,-0.04103463515639305,0.11405716091394424,-0.13750965893268585
0.07503139972686768,-0.09650668501853943,0.03355835750699043,0.20809431374073029,-0.04217490181326866,0.2672634720802307,-0.13562314212322235,-0.031851738691329956,0.20524196326732635,-0.17618410289287567,0.002813340164721012,0.06687560677528381,-0.027002129703760147,-0.1480112373828888,0.03266609460115433,0.00951856654137373,0.16825971007347107,0.029886316508054733,-0.06226804852485657,-0.09039261192083359,0.0033319550566375256,0.2091265767812729,-0.08386887609958649,0.0473116971552372
-0.09445390850305557,0.14566387236118317,-0.1434970647096634,-0.04931039735674858,0.2232958823442459,0.17699386179447174,0.057777076959609985,0.1030624508857727,-0.15534573793411255,0.12382351607084274,0.0510297566652298,0.03137228265404701,0.15142294764518738,-0.007463392335921526,0.12740571796894073,-0.1446363776922226,0.0591268353164196,-0.1357179433107376,-0.2170257270336151,-0.2637483775615692,0.0632924810051918,0.18650896847248077,-0.185995414853096,0.09688398987054825
-0.045823030173778534,-0.16295236349105835,0.005154631566256285,0.00043594406452029943,-0.12838241457939148,-0.07377105951309204,-0.022680895403027534,-0.17206795513629913,0.1067182794213295,0.18582530319690704,-0.14744652807712555,0.034938450902700424,-0.1547253280878067,0.016679568216204643,-0.0240650475025177,-0.046357911080121994,0.055022358894348145,-0.13315868377685547,-0.05175742506980896,0.030859192833304405,0.05432986840605736,0.03671957179903984,0.01347974594682455,-0.10126255452632904
0.16670605540275574,0.13842277228832245,-0.13198579847812653,-0.04358291253447533,-0.04348238185048103,-0.1515505164861679,0.016024254262447357,-0.06347068399190903,0.07130919396877289,-0.2696436941623688,0.003618229879066348,0.02612418681383133,-0.15530076622962952,-0.11719392240047455,-0.1490912288427353,0.11477567255496979,0.027870772406458855,-0.10152478516101837,-0.014723733998835087,0.14790202677249908,0.07587231695652008,-0.07063383609056473,-0.01625523529946804,0.11952255666255951
0.05196000263094902,-0.02835066430270672,-0.17487044632434845,-0.09739400446414948,0.0869278833270073,-0.08189156651496887,-0.010127621702849865,-0.07761894911527634,-0.15322883427143097,-0.01913054659962654,0.0921066626906395,-0.11108747124671936,0.07092820852994919,-0.06666290760040283,-0.05926615372300148,-0.1262606531381607,0.21136023104190826,0.006357176229357719,0.042753417044878006,0.11278712004423141,-0.11450526118278503,-0.09464927762746811,0.0949263721704483,-0.07370257377624512
0.03942936658859253,0.04503874480724335,-0.0817924290895462,-0.20304296910762787,-0.20615160465240479,-0.15474386513233185,0.047613538801670074,0.00442689610645175,0.07158738374710083,0.010660138912498951,0.08743701875209808,0.06871569901704788,0.04831282049417496,-0.19929072260856628,-0.04769565910100937,-0.06816153973340988,0.12920841574668884,-0.0008475742652080953,0.01341938879340887,-0.09874634444713593,0.005975958425551653,0.1996195912361145,0.015218817628920078,-0.02979760803282261
-0.09405346214771271,0.1342426985502243,-0.16657543182373047,0.08059394359588623,-0.18161442875862122,-0.09473663568496704,-0.1890394389629364,-0.2034199833869934,0.18530510365962982,-0.06548028439283371,-0.08898942172527313,0.015550157055258751,-0.16159513592720032,-0.0937173068523407,0.025548195466399193,0.07252298295497894,0.1431208848953247,-0.012660130858421326,0.03732827305793762,-0.0433274544775486,0.18652726709842682,0.0850878432393074,-0.09523051977157593,-0.20525778830051422
0.09534424543380737,0.11793852597475052,-0.1733647882938385,-0.0056461151689291,-0.009972216561436653,-0.1925470381975174,-0.15681397914886475,-0.08976006507873535,-0.11842449009418488,-0.14571288228034973,-0.17274783551692963,-0.009467351250350475,0.10707724094390869,0.1767812818288803,0.06460419297218323,-0.08097472786903381,0.2206350564956665,-0.009971465915441513,-0.14238598942756653,0.188023179769516,-0.04950251430273056,-0.10781925171613693,-0.15451139211654663,-0.2209182232618332
-0.05202789604663849,-0.07757575809955597,0.21446318924427032,-0.17756624519824982,0.02809331752359867,0.03825788572430611,-0.2017526477575302,-0.051919594407081604,0.15036673843860626,-0.09769104421138763,0.17588968575000763,-0.03862108290195465,0.1693187803030014,-0.1687622368335724,0.08332926779985428,0.03555168956518173,-0.23958463966846466,-0.03254619240760803,-0.1287251114845276,0.17725877463817596,0.05071568861603737,0.1731853485107422,0.13123279809951782,-0.11417756974697113
-0.16745823621749878,0.006872297264635563,-0.23392464220523834,-0.10731220245361328,-0.02998664788901806,-0.25496605038642883,-0.10747041553258896,-0.2043583244085312,-0.13652671873569489,0.19605495035648346,0.15128464996814728,0.16253530979156494,-0.022883467376232147,0.08007919043302536,0.0100240558385849,-0.0174193624407053,0.0266228336840868,-0.01830410584807396,0.2104092687368393,0.005144839640706778,-0.0607687272131443,0.1255841851234436,-0.1621277630329132,-0.14874482154846191
0.1020311638712883,-0.021751772612333298,-0.06984962522983551,0.03079444169998169,0.09744764864444733,0.23948077857494354,-0.11731458455324173,-0.2100251168012619,-0.20721544325351715,0.20115001499652863,0.1378185749053955,0.241608664393425,-0.1340237259864807,-0.20116113126277924,0.011746633797883987,0.17660146951675415,0.10889774560928345,-0.19327643513679504,0.21863076090812683,0.1417493224143982,0.11712480336427689,-0.19937625527381897,-0.20783400535583496,0.0626172125339508
-0.09751712530851364,0.03711678087711334,-2.423656769678928e-05,0.1879274547100067,-0.20821040868759155,0.3309910297393799,-0.146102637052536,0.06745068728923798,-0.03990968316793442,-0.21178165078163147,-0.25501900911331177,-0.10318303853273392,-0.16122697293758392,0.014704192988574505,0.16515615582466125,-0.13620248436927795,0.17956095933914185,-0.07065477222204208,-0.013567832298576832,0.030825002118945122,-0.04587342590093613,0.0967751145362854,0.26426565647125244,0.1821444034576416
0.1250734031200409,0.0996617004275322,0.17454534769058228,0.07412629574537277,-0.18377302587032318,-0.08590389043092728,-0.2828867733478546,0.06361328065395355,0.03519053012132645,-0.094444639980793,0.147369846701622,0.19824068248271942,-0.0054248180240392685,-0.1375766098499298,0.04310259968042374,-0.0496101938188076,0.2616375684738159,-0.22995120286941528,0.09610643237829208,0.05312951281666756,-0.10806930810213089,-0.22110944986343384,-0.014709207229316235,0.09703035652637482
0.17908510565757751,-0.07188952714204788,-0.14523586630821228,-0.2529555559158325,0.05656464397907257,-0.08362991362810135,-0.0757828950881958,0.06505755335092545,-0.02446790225803852,0.11443062126636505,-0.021068088710308075,-0.11496236175298691,-0.1845054030418396,0.15678469836711884,0.12969323992729187,-0.12471438944339752,-0.08844239264726639,0.2549397349357605,0.09698896110057831,0.026423823088407516,-0.15062113106250763,0.05184996500611305,0.16143923997879028,-0.153974711894989
0.23226496577262878,0.19502630829811096,-0.21290551126003265,-0.21731317043304443,0.11447198688983917,-0.07314576208591461,-0.1648288518190384,-0.19902628660202026,-0.17113320529460907,0.059469617903232574,0.09237267076969147,0.15566295385360718,-0.1600862741470337,-0.023428406566381454,-0.23236051201820374,-0.07780531793832779,0.028804786503314972,-0.23619171977043152,0.1091945692896843,0.23633214831352234,0.09613079577684402,0.1016361266374588,-0.14347286522388458,0.0947025716304779
0.15374644100666046,0.1461782455444336,0.20661017298698425,0.11382913589477539,0.012602554634213448,-0.12449929863214493,-0.10356798022985458,-0.07470561563968658,-0.14525148272514343,0.16645513474941254,-0.0049369665794074535,0.09091050922870636,0.10987495630979538,-0.1687937080860138,-0.24319685995578766,-0.050748806446790695,-0.16632476449012756,-0.09573143720626831,-0.07696721702814102,0.005659699440002441,0.11801065504550934,0.11599055677652359,-0.11857898533344269,-0.008124355226755142
-0.1691523790359497,-0.04065755754709244,-0.13688263297080994,0.04224719852209091,-0.2206747829914093,0.04114453122019768,-0.24310116469860077,-0.18046626448631287,-0.004986779764294624,-0.10334916412830353,0.04849370941519737,0.1590205430984497,-0.21208269894123077,-0.10867749154567719,-0.008730021305382252,-0.175144761800766,-0.15049487352371216,0.12492063641548157,-0.19410550594329834,0.21244831383228302,-0.18599553406238556,0.09207476675510406,-0.042508095502853394,-0.1537984162569046
0.1493452936410904,-0.10891761630773544,0.09739251434803009,-0.14636728167533875,-0.013674835674464703,0.06171378493309021,-0.1131155788898468,-0.007272819057106972,-0.0444856621325016,-0.07037065178155899,-0.18952436745166779,0.07387866079807281,0.18532831966876984,-0.02421782724559307,0.1984815150499344,-0.17116351425647736,0.09169604629278183,-0.04914724454283714,0.048828620463609695,-0.0028879528399556875,0.0818827673792839,-0.16298982501029968,-0.11229615658521652,-0.20167413353919983
0.17316587269306183,-0.0884288027882576,-0.1271442323923111,-0.24156102538108826,-0.07733207195997238,-0.19141322374343872,0.0985364317893982,-0.14905810356140137,-0.1446138620376587,-0.2243390679359436,0.01977941393852234,0.08045914024114609,-0.02584795281291008,-0.05311372131109238,-0.21677906811237335,0.021227896213531494,0.20459593832492828,0.06692613661289215,-0.05144360661506653,-0.09826851636171341,0.2393002063035965,-0.1334240734577179,0.1066008061170578,-0.01838020235300064
0.08218512684106827,0.12049064040184021,0.02759227529168129,-0.08382713794708252,-0.12542395293712616,-0.12854202091693878,0.18190258741378784,0.1474088877439499,0.22238704562187195,0.04462464526295662,0.17841936647891998,-0.0015078778378665447,-0.12780611217021942,0.013419657945632935,-0.13430239260196686,-0.14177066087722778,-0.14736871421337128,0.09387730807065964,0.01756337285041809,0.10898513346910477,-0.003381243906915188,0.021415654569864273,0.21664959192276,0.12322116643190384
0.17529475688934326,-0.002322663553059101,-0.017368698492646217,0.05525332689285278,-0.17349311709403992,0.02203219383955002,0.0400036945939064,-0.14192654192447662,0.005025961901992559,-0.12944389879703522,-0.002727860352024436,-0.003344471799209714,-0.07445415109395981,0.09559127688407898,-0.06914746761322021,-0.04460108280181885,0.09713397175073624,0.08261138945817947,0.14423538744449615,-0.009939262643456459,0.20325686037540436,0.12945692241191864,0.04634412005543709,-0.06577613949775696
0.12377697229385376,0.055511124432086945,0.0643751472234726,0.14346033334732056,-0.12024227529764175,0.13020004332065582,-0.20274080336093903,0.12003987282514572,0.10595596581697464,0.06751079112291336,-0.20395268499851227,-0.06644126772880554,0.1858859360218048,-0.13415876030921936,-0.001599987386725843,0.1432986557483673,0.07638825476169586,0.16890794038772583,-0.08207190036773682,0.07443612813949585,-0.09494546055793762,0.18906830251216888,-0.15961894392967224,-0.03914099931716919
-0.1857658177614212,0.02747058868408203,-0.10604064911603928,-0.06561601907014847,0.1337069422006607,-0.00024990690872073174,-0.110124371945858,0.1770808845758438,0.09823266416788101,0.04712468758225441,-0.004419165197759867,0.08413030952215195,0.17654971778392792,-0.12447983771562576,-0.07905317097902298,-0.1696852743625641,-0.13200126588344574,0.17540021240711212,0.11722740530967712,-0.012505981139838696,-0.11236388236284256,-0.09477151930332184,0.15925833582878113,-0.15865185856819153
-0.1748277246952057,0.17986290156841278,-0.16908730566501617,0.06957221031188965,-0.0854140967130661,-0.16982027888298035,-0.013370557688176632,-0.015696920454502106,-0.08673612773418427,0.0878799632191658,0.25826388597488403,0.13270652294158936,-0.07767173647880554,-0.19028258323669434,-0.020422669127583504,0.04999095946550369,-0.1719813346862793,-0.1742977797985077,0.09281270205974579,0.04463456943631172,-0.08927329629659653,-0.08693114668130875,0.21064215898513794,0.16945606470108032
-0.1484849601984024,0.09225966036319733,0.029108913615345955,-0.04367370530962944,-0.2028367668390274,0.08307018876075745,-0.20648731291294098,0.11316922307014465,0.09052979946136475,-0.26972532272338867,0.05884674936532974,-0.01061632763594389,0.09580732136964798,-0.11569736897945404,-0.03341396152973175,-0.11289548873901367,0.1541697233915329,0.16169707477092743,-0.11855532228946686,0.057213716208934784,-0.2164090871810913,0.20492671430110931,0.132583349943161,0.06669706106185913
-0.054946113377809525,0.01365019753575325,-0.1480410099029541,-0.23694157600402832,-0.09221681207418442,0.2291582226753235,-0.1971193552017212,-0.17543169856071472,-0.1226048469543457,-0.15118823945522308,0.06475687026977539,-0.03167838603258133,-0.020524099469184875,-0.10593272000551224,-0.0637836754322052,-0.1347803771495819,0.004668535199016333,0.17378856241703033,0.047433674335479736,0.2708490192890167,0.06964536011219025,0.11055802553892136,-0.042931538075208664,0.14612846076488495
-0.0802835002541542,-0.1731879711151123,-0.13354581594467163,-0.13184593617916107,0.1076502799987793,0.354585200548172,-0.06263218820095062,0.12850207090377808,-0.13075076043605804,-0.1663721203804016,-0.028244035318493843,-0.017706843093037605,0.08645462989807129,-0.015734955668449402,-0.1695505678653717,0.129043310880661,0.05591246858239174,0.05516648665070534,-0.0753975585103035,-0.17000947892665863,-0.126016303896904,0.1916881948709488,0.13274623453617096,0.09439953416585922
0.19642546772956848,-0.12244194000959396,0.05162782222032547,0.01722467690706253,0.04685647785663605,0.2697172164916992,-0.2129579782485962,-0.14281955361366272,0.20741809904575348,-0.17115886509418488,-0.026709625497460365,-0.06489016860723495,0.13306304812431335,-0.02291831187903881,-0.20249825716018677,0.1928548961877823,-0.15026909112930298,0.12611500918865204,-0.12757088243961334,0.08096996694803238,-0.028645887970924377,-0.05011869966983795,-0.20832329988479614,-0.176910862326622
0.10293879359960556,0.11224313080310822,0.13194310665130615,-0.10185743868350983,0.19765160977840424,0.01600285805761814,0.1535169631242752,-0.004794701933860779,0.14461591839790344,0.20453353226184845,-0.062347400933504105,-0.11170852929353714,-0.20489579439163208,-0.17411375045776367,0.2817280888557434,-0.16827963292598724,-0.18382129073143005,0.1474413275718689,0.07286790013313293,-0.2416207194328308,-0.17459993064403534,-0.07471571862697601,-0.012034273706376553,0.044977352023124695
0.14110788702964783,0.12732139229774475,0.15303033590316772,0.10888955742120743,-0.04794159531593323,0.0518135204911232,0.021113544702529907,-0.06239303573966026,0.0961553081870079,0.14272962510585785,-0.05992960184812546,0.19536654651165009,-0.026407046243548393,0.10005922615528107,0.11816298216581345,0.043244779109954834,0.017074543982744217,0.11922352761030197,-0.13363543152809143,-0.11593357473611832,-0.06753089278936386,0.0866108313202858,-0.046832092106342316,-0.05858808383345604
"
",l,a,y,e,r,2
-0.0321740061044693,-0.0013741696020588279,0.014245226979255676,-0.049791451543569565,-0.08014505356550217,0.002909713191911578,0.1578216254711151,-0.013300818391144276,0.0455964058637619,0.015321556478738785,0.06322658061981201,0.10126463323831558,-0.011926773935556412,0.10923048108816147,0.13053564727306366,0.16149544715881348,-0.07091394811868668,0.14786653220653534,0.0029464159160852432,-0.01606745645403862,-0.08984079957008362,0.0012358983512967825,-0.09452664852142334,0.022072529420256615,-0.058351531624794006,0.052582185715436935,-0.04645198956131935,-0.062356192618608475,-0.08764965832233429,-0.06390723586082458,0.11217356473207474,-0.03191877156496048,-0.028135834261775017,-0.005918603856116533,0.017061876133084297,0.02900712564587593,-0.008212700486183167,0.05725564435124397,-0.004116347059607506,0.04307589679956436,0.12615333497524261,0.03811962902545929,-0.030890703201293945,-0.1428789347410202,0.06971718370914459,0.04081783443689346,-0.044416967779397964,0.10991249233484268,0.039728570729494095,-0.05040644481778145,0.011775779537856579,0.09076156467199326,-0.10146208107471466,0.02193106897175312,-0.00966337975114584,0.10092104971408844,-0.09464042633771896,-0.07470285892486572,-0.12332696467638016,0.04844065010547638,0.05592721700668335,0.06485629826784134,-0.05640700086951256,-0.03230581805109978,0.021702755242586136,0.10622045397758484,0.08629369735717773,0.05572759360074997,0.1181354895234108,0.028443433344364166,0.09463341534137726,-0.0022153668105602264,-0.004986063111573458,0.007091872859746218,0.018533213064074516,0.02545326203107834,-0.01321016252040863,0.0852602943778038,0.07176835834980011,0.0302534569054842,-0.12038519978523254,-0.020069528371095657,0.09310246258974075,-0.033027417957782745,0.07419642060995102,0.16593463718891144,-0.011833458207547665,0.03378034383058548,-0.04173370823264122,-0.07218717038631439,-0.00022886245278641582,-0.019235162064433098,-0.07665522396564484,0.02983775921165943,0.0031037996523082256,0.07596725225448608,-0.02374824322760105,-0.013621805235743523,-0.06821724027395248,0.052928343415260315,0.09675904363393784,0.04384472221136093,-0.013863131403923035,0.10859696567058563,-0.00441783620044589,0.005448155105113983,-0.056709304451942444,0.05302199348807335,-0.06567442417144775,0.09916839748620987,0.029006969183683395,-0.035632841289043427,0.018721679225564003,-0.056307051330804825,0.07663765549659729,-0.018663637340068817,0.12105799466371536,0.07516813278198242,0.012121760286390781,-0.029627816751599312,-0.05295152962207794,0.005361068062484264,0.10347447544336319,-0.10583604127168655,0.07942099124193192,-0.1066024899482727,0.09307266026735306,0.030678510665893555
-0.02654813975095749,0.1264168620109558,0.09827229380607605,0.05107654258608818,0.04869723320007324,-0.012848376296460629,0.04756542667746544,-0.05160705745220184,0.07716114073991776,-0.012231684289872646,0.05375760793685913,0.06026975437998772,-0.0567377433180809,0.04463404789566994,0.044751059263944626,0.09223950654268265,0.09442584961652756,0.014042595401406288,-0.022508731111884117,0.016750114038586617,0.026840105652809143,0.037181589752435684,-0.026802854612469673,0.047018036246299744,-0.06066880375146866,-0.05325457826256752,0.08258087188005447,0.08969789743423462,-0.15627819299697876,0.03078150562942028,-0.02204282023012638,-0.04438606649637222,0.012466504238545895,0.11341850459575653,0.1357223391532898,-0.010300908237695694,0.10622122883796692,0.07330187410116196,0.07272159308195114,0.06204042583703995,0.07112792134284973,-0.01081856619566679,0.01429418008774519,-0.07833447307348251,0.021922115236520767,0.009900340810418129,-0.1158457100391388,0.07534544914960861,0.00021799835667479783,0.09575305879116058,0.08202747255563736,0.11303895711898804,0.05079381912946701,-0.036635976284742355,0.08942995965480804,-0.0037897515576332808,-0.004932156763970852,-0.08685341477394104,0.015078567899763584,-0.06182148680090904,0.08059284836053848,0.14070841670036316,-0.05937313660979271,-0.038629863411188126,-0.003001495962962508,0.09869488328695297,-0.027245353907346725,-0.03125949949026108,-0.01092985924333334,0.02292237989604473,0.03182888776063919,-0.009637941606342793,0.09571122378110886,0.093722864985466,0.012217186391353607,0.03495054692029953,0.11123998463153839,0.018694806843996048,-0.0067465584725141525,0.13497044146060944,0.04540318250656128,0.07370974123477936,0.13016512989997864,0.0956009179353714,0.04456697404384613,0.10397887974977493,0.0978001058101654,0.036234382539987564,-0.017957570031285286,0.03676718473434448,0.09818927943706512,0.020153505727648735,0.08184853941202164,0.06975821405649185,0.07380741834640503,0.004686435684561729,0.09794051945209503,0.10930538177490234,-0.018701015040278435,-0.10655708611011505,0.051041893661022186,-0.025094034150242805,-0.04252079874277115,0.028847547248005867,-0.01437449362128973,0.030991019681096077,-0.01188616082072258,0.0573589913547039,0.0006674383184872568,0.15489739179611206,-0.005343150347471237,0.05780614912509918,0.03630538284778595,0.08346086740493774,0.008120743557810783,-0.01802746206521988,0.024957261979579926,-0.018301771953701973,-0.018717046827077866,0.09056118875741959,0.07875166833400726,-0.04754580929875374,0.07298436760902405,-0.05534728616476059,0.07766611874103546,0.03270237147808075,0.05469856411218643,0.003914054483175278
-0.04704843461513519,0.07981407642364502,-0.016857242211699486,-0.028846103698015213,0.0443745031952858,0.04678977280855179,-0.06299665570259094,-0.047777287662029266,0.00910262018442154,-0.0014467332512140274,-0.05310282111167908,-0.02746095508337021,-0.04905220866203308,0.06270552426576614,0.015708627179265022,0.0719592422246933,0.037039708346128464,0.04415469989180565,-0.056494131684303284,-0.013305666856467724,-0.018321678042411804,-0.08869822323322296,-0.06475116312503815,0.010897275060415268,-0.07520132511854172,-0.06669365614652634,0.060477618128061295,-0.0064331963658332825,-0.055251557379961014,-0.08513842523097992,-0.09231249243021011,-0.04220818355679512,0.04309520125389099,0.07237814366817474,0.019037790596485138,-0.09359104186296463,0.04334275424480438,-0.06967230886220932,0.00046635910985060036,-0.049809038639068604,-0.01835978776216507,-0.05800781399011612,-0.05835771560668945,-0.04414055123925209,-0.047673922032117844,0.028626078739762306,-0.07496870309114456,-0.03357691690325737,0.0613618865609169,-0.06807629019021988,-0.021578576415777206,-0.004357797559350729,0.05736788362264633,0.02832874469459057,-0.0905740037560463,0.01985093764960766,0.08285383135080338,-0.08524874597787857,-0.04232461377978325,-0.009920550510287285,-0.06046227738261223,-0.06001659855246544,0.0026261284947395325,0.020093902945518494,0.053006429225206375,0.02853376790881157,0.07599663734436035,-0.013380497694015503,-0.006240529008209705,-0.03033575601875782,0.000631854753009975,-0.006247073877602816,0.06823146343231201,0.024543672800064087,-0.07489059120416641,-0.002380285644903779,0.00590945640578866,-0.06768902391195297,0.025585487484931946,-0.0183988269418478,0.02200053632259369,-0.05990561842918396,-0.0018070992082357407,0.048254214227199554,0.012753576040267944,0.07172909379005432,0.07895494997501373,-0.05684119835495949,-0.01945999264717102,-0.060833849012851715,-0.01695866510272026,-0.040766313672065735,-0.05319886654615402,0.0076820882968604565,-0.06958582252264023,-0.03164435178041458,0.0054187290370464325,0.07076287269592285,0.010750532150268555,0.025532500818371773,-0.03941326215863228,0.08132467418909073,0.06284549087285995,-0.06730112433433533,0.006852721329778433,0.07124194502830505,0.05177246779203415,-0.003743514884263277,-0.03915638104081154,-0.07811535149812698,-0.04236796125769615,0.05471345782279968,0.01834823004901409,-0.022222746163606644,0.027438005432486534,-0.05001315101981163,0.0342024601995945,0.0554669052362442,0.008797322399914265,0.025094904005527496,0.010787840001285076,0.040885116904973984,-0.03517111763358116,-0.04065145552158356,-0.04128105565905571,-0.0735887661576271,0.032348211854696274,0.014613368548452854
-0.19963102042675018,-0.004865077789872885,-0.054704438894987106,-0.00710187666118145,0.08037970960140228,-0.37592795491218567,-0.0326794795691967,-0.1533050835132599,0.03928953409194946,-0.027286402881145477,0.017102962359786034,0.004128694534301758,0.029742270708084106,-0.037369921803474426,0.195026233792305,0.05143354833126068,-0.042341116815805435,0.07003525644540787,-0.10957023501396179,0.028762487694621086,-0.05794097110629082,0.14928856492042542,0.07271432876586914,-0.11558859050273895,0.1348845362663269,-0.03513716161251068,-0.08971939980983734,0.07174888253211975,-0.09519366174936295,-0.024641377851366997,-0.12427306175231934,0.06017171964049339,0.029472822323441505,0.04314035177230835,-0.03133543208241463,-0.027838217094540596,-0.003821347374469042,-0.011959489434957504,0.009719610214233398,0.017940213903784752,0.2143823802471161,0.015336239710450172,-0.05129232630133629,0.04287474974989891,0.08829563111066818,-0.08627941459417343,-0.07773920148611069,-0.07387126237154007,0.04085913673043251,-0.06297045201063156,0.08201203495264053,0.10823450982570648,0.018522946164011955,0.046804435551166534,-0.04531516134738922,0.15185654163360596,-0.015211286954581738,-0.058860260993242264,0.04853993281722069,-0.3407077491283417,0.012896236032247543,0.19820861518383026,-0.028054295107722282,-0.006267902906984091,0.016897479072213173,-0.06850932538509369,0.0019202567636966705,-0.06512069702148438,0.0005795362521894276,-0.04311482235789299,-0.07698514312505722,0.0379786342382431,-0.16365228593349457,-0.13179253041744232,-0.13857947289943695,0.16877682507038116,0.15976166725158691,-0.03675165772438049,0.018191231414675713,-0.04554092884063721,0.1281360536813736,0.01683441735804081,0.0024699289351701736,-0.009599328972399235,0.06581398099660873,0.10272584110498428,0.042475972324609756,-0.06703665107488632,0.06673292070627213,-0.03442505747079849,-0.01604113169014454,-0.05228523537516594,-0.04477856680750847,-0.07974060624837875,0.022090038284659386,0.011783359572291374,-0.0886533260345459,-0.05707063898444176,-0.016601864248514175,-0.3478669822216034,-0.05303357169032097,0.06980467587709427,-0.3532644808292389,-0.16840913891792297,-0.0647847056388855,-0.20265327394008636,-0.0729316771030426,0.20481668412685394,0.05378417298197746,0.10923086106777191,-0.022432921454310417,-0.18051406741142273,0.02224343828856945,-0.027008436620235443,-0.08544562757015228,0.03570299595594406,-0.06764616817235947,0.03151124343276024,0.056907713413238525,-0.002566449111327529,0.027280956506729126,0.03455149754881859,-0.015933774411678314,-0.10634151101112366,0.07648446410894394,0.04654283449053764,0.09962978959083557,0.04578910022974014
-0.028556888923048973,0.16899146139621735,-0.037402428686618805,0.021055378019809723,-0.11675875633955002,0.059173163026571274,0.27756306529045105,-0.1439494490623474,0.14223386347293854,-0.03777953237295151,-0.01458281185477972,0.00805693306028843,0.043088268488645554,0.06724429130554199,0.036295708268880844,0.22821767628192902,0.12062188982963562,0.1026369035243988,0.060179032385349274,0.031244680285453796,0.18948912620544434,0.06279478967189789,-0.08995369076728821,-0.02081858180463314,-0.16322581470012665,-0.05500783771276474,0.028428498655557632,-0.06829272210597992,-0.2796946167945862,-0.12094864994287491,0.022756455466151237,-7.069685671012849e-05,0.04715995863080025,0.05009976401925087,-0.09931667149066925,0.039481308311223984,-0.0814036875963211,0.003383106319233775,0.024043453857302666,0.0015182687202468514,0.16940046846866608,0.10293523222208023,-0.08486898243427277,-0.09794306755065918,0.0789126306772232,0.06635614484548569,-0.07573162764310837,0.013433150947093964,-0.23791058361530304,0.07903330773115158,0.10961426049470901,-0.018323713913559914,0.09774433076381683,0.014317819848656654,0.03197508677840233,-0.08237623423337936,-0.0686366930603981,-0.3111608326435089,0.038753896951675415,-0.043786514550447464,-0.11305723339319229,-0.009574176743626595,0.004924595355987549,-0.018227314576506615,0.006716844625771046,0.14618511497974396,-0.004256603308022022,-0.24107368290424347,0.002582844579592347,-0.010337401181459427,0.07089512050151825,-0.06153711676597595,-0.05625953897833824,0.06365270912647247,0.016438227146863937,0.05325569957494736,0.13622485101222992,0.06751145422458649,0.015015398152172565,0.1410033106803894,-0.0930173248052597,-0.038759198039770126,0.03756692633032799,-0.1281251311302185,-0.058880239725112915,-0.12168946117162704,-0.13212868571281433,0.0812511146068573,0.05451974645256996,0.08656664192676544,-0.047513969242572784,0.0040722317062318325,-0.06809403747320175,-0.09655994176864624,0.12397120893001556,0.04490257799625397,0.09594295173883438,0.008432372473180294,-0.09705720096826553,-0.12739652395248413,-0.08863411843776703,-0.012830309569835663,0.042595021426677704,0.022584985941648483,0.00812180433422327,-0.04800887778401375,0.07905683666467667,0.06099593639373779,-0.17245985567569733,0.08650623261928558,-0.020852388814091682,0.02172042429447174,0.19571231305599213,0.023682530969381332,0.03992750868201256,-0.05842350423336029,0.08296035975217819,0.06594690680503845,-0.02835984341800213,-0.13058413565158844,0.028040923178195953,0.11695625633001328,0.038607411086559296,-0.2656804025173187,-0.025228548794984818,-0.0910734310746193,-0.07831414043903351,-0.06653908640146255
-0.06217864528298378,0.03305250033736229,0.039160843938589096,-0.00911799818277359,-0.01107154879719019,-0.08825228363275528,-0.03857237845659256,0.03757064789533615,-0.06705570220947266,-0.05017014592885971,-0.025596853345632553,0.00644112192094326,0.014635525643825531,-0.010100933723151684,0.038427095860242844,0.016995124518871307,0.045013897120952606,-0.09803885966539383,-0.05046965926885605,-0.023748621344566345,0.03780138120055199,-0.0552055649459362,0.029860133305191994,0.006909535266458988,0.006248694844543934,0.027342192828655243,0.017034361138939857,-0.07890141010284424,-0.023626700043678284,0.005284052807837725,-0.04411259666085243,0.06676675379276276,-0.03528279438614845,-0.027892308309674263,0.036740489304065704,0.03297887369990349,-0.044132184237241745,0.02775522880256176,-0.08804734796285629,-0.03219538554549217,0.06796521693468094,0.06805048882961273,-0.08138199150562286,-0.0894673764705658,0.005171941127628088,0.00386213231831789,-0.023416616022586823,0.049501243978738785,0.02506750449538231,0.005305960308760405,-0.040809955447912216,0.07451577484607697,0.0395069345831871,-0.029883403331041336,0.08233080059289932,-0.0698060393333435,-0.009029158391058445,0.005763152148574591,-0.04410678148269653,-0.09804097563028336,0.07350259274244308,-0.005620943382382393,0.018691670149564743,0.06410083174705505,0.07259351015090942,-0.05763012915849686,-0.030563494190573692,0.00021576296421699226,-0.006947514601051807,0.01998005621135235,0.019495436921715736,0.0755293071269989,-0.04381969943642616,-0.03254586085677147,-0.08871688693761826,0.05184251815080643,-0.04143932834267616,0.01777126081287861,0.016560716554522514,0.030659900978207588,-0.03443462401628494,-0.014187726192176342,0.06368572264909744,-0.005593047942966223,0.08057935535907745,-0.033552009612321854,0.02784040942788124,0.04614102095365524,-0.08717954158782959,-0.02163504809141159,0.009941047057509422,-0.034357428550720215,0.04246430844068527,-0.027375178411602974,-0.059550993144512177,-0.0017889945302158594,-0.08632950484752655,-0.07198447734117508,-0.02413398027420044,-0.03243065997958183,0.025799039751291275,0.004818636458367109,-0.09558546543121338,0.005780322011560202,-0.013037336058914661,-0.09547700732946396,-0.08111029863357544,0.06714926660060883,-0.04552970826625824,0.039062630385160446,-0.08463665843009949,0.05038747936487198,-0.0285223089158535,-0.024634722620248795,-0.07172474265098572,0.04718729481101036,-0.018341226503252983,-0.04939161613583565,-0.06335945427417755,0.07121409475803375,0.006431505084037781,-0.03317360579967499,-0.029926422983407974,0.06995255500078201,-0.0844825804233551,0.0522877499461174,-0.06568095088005066,-0.031642135232686996
0.11316084861755371,0.15734876692295074,0.06589820235967636,-0.0030670007690787315,-0.014908919110894203,-0.014157560653984547,0.04415546730160713,-0.014984606765210629,-0.0005138033884577453,0.0968720018863678,0.09418407827615738,0.016550924628973007,-0.02023262344300747,-0.032672807574272156,-0.0031815357506275177,0.020880864933133125,0.012936859391629696,0.13338518142700195,-0.012232686392962933,0.040956757962703705,-0.0597514845430851,0.04040207713842392,-0.0108826644718647,0.10501863062381744,-0.06600644439458847,-0.06381765753030777,-0.024340923875570297,-0.05688739940524101,-0.10671983659267426,0.004390363115817308,0.054825156927108765,0.09670919924974442,0.04830820858478546,0.09984041750431061,0.005822286941111088,0.006133768241852522,0.03452962264418602,0.025276441127061844,0.02648630551993847,0.0691990852355957,0.06271559000015259,0.00175970490090549,-0.034284498542547226,-0.11421093344688416,0.0994591936469078,0.07383058220148087,0.06179114431142807,0.1435498297214508,0.049072884023189545,0.07612649351358414,0.01669299229979515,0.08265785872936249,-0.09049616754055023,-0.005572124850004911,0.047621048986911774,-0.011140656657516956,0.06110306829214096,-0.13854478299617767,-0.05496000498533249,-0.021783076226711273,0.022984173148870468,0.0023615737445652485,-0.0566260851919651,0.06004759296774864,0.003226757049560547,0.09392369538545609,0.05628151819109917,0.05748685076832771,0.05912541598081589,0.12386319786310196,0.013779151253402233,0.010547087527811527,0.07927093654870987,-0.0413786806166172,-0.03199712187051773,0.0799427255988121,0.007221244741231203,0.05680444836616516,-0.01804523542523384,-0.01045853178948164,0.07528041303157806,0.015096260234713554,0.006030309945344925,-0.06891396641731262,0.14082534611225128,0.13167640566825867,0.05593690276145935,-0.012765704654157162,-0.04151732474565506,0.007892617024481297,-0.029511863365769386,-0.05215353146195412,0.0701460987329483,0.08407372236251831,-0.004530966281890869,-0.01017626840621233,0.058018967509269714,0.10923189669847488,0.04222897067666054,0.019585570320487022,0.08025085926055908,0.02161332406103611,-0.009246663190424442,0.07132820039987564,0.11418401449918747,0.06559593230485916,0.013323589228093624,-0.0008569923229515553,0.03691896051168442,0.07234995812177658,0.042401138693094254,0.01913384534418583,0.0864415392279625,0.09185927361249924,0.008264455944299698,0.08199498802423477,0.11641675978899002,0.08987466245889664,0.028531083837151527,0.043924570083618164,0.04962972179055214,0.013636341318488121,0.01935303956270218,-0.172479048371315,0.17115753889083862,0.029509229585528374,-0.05644092708826065,0.0441659651696682
0.029299261048436165,0.08101081103086472,0.056389838457107544,-0.06298557668924332,0.048110321164131165,-0.03452957421541214,0.07130827009677887,0.012034015730023384,0.007151155266910791,-0.02814660780131817,0.10520237684249878,-0.04547220841050148,-0.07300439476966858,-0.02817523293197155,0.029892995953559875,0.0005200309678912163,-0.07368902117013931,0.09397754818201065,0.03748901188373566,-0.05397849902510643,-0.06691217422485352,-0.04031867906451225,-0.05130980536341667,-0.05055280029773712,0.028335046023130417,0.048657529056072235,-0.05364261940121651,0.04635985195636749,-0.20024508237838745,0.08214644342660904,-0.018468249589204788,-0.02586819976568222,0.09876662492752075,0.029047321528196335,-0.057773616164922714,-0.014974541030824184,-0.07865875214338303,0.01637895777821541,0.010507612489163876,0.05752090737223625,0.13743481040000916,-0.0429944284260273,0.08912894874811172,0.021124621853232384,-0.05946344509720802,0.09262476861476898,-0.007070163730531931,0.13181664049625397,-0.08022212237119675,-0.04922592267394066,0.0244616586714983,-0.07871679961681366,0.04129718244075775,-0.029372164979577065,-0.08916179090738297,-0.006653784774243832,-0.04554455727338791,-0.20111961662769318,0.009110149927437305,-0.06160162016749382,-0.06534629315137863,-0.04092119634151459,0.07387959212064743,-0.03875020518898964,-0.026107249781489372,0.0582377053797245,0.10535577684640884,0.010462818667292595,0.059968240559101105,0.04801759868860245,-0.0017734984867274761,0.03159431740641594,-0.08595535904169083,0.0583702027797699,0.05076051130890846,0.05308511108160019,0.10582320392131805,0.061242397874593735,-0.032445695251226425,0.12518131732940674,-0.10106123983860016,-0.057101719081401825,0.002259740838780999,0.07808957248926163,0.12554071843624115,0.12360332906246185,0.0332571305334568,0.030468633398413658,0.07522036135196686,0.027422117069363594,0.07890507578849792,-0.053567685186862946,0.008096831850707531,-0.08677839487791061,0.058079205453395844,0.11631691455841064,0.14363235235214233,-0.05123891681432724,-0.09282240271568298,0.026619046926498413,0.023149022832512856,0.011143014766275883,-0.0737229436635971,0.09697309136390686,-0.07471567392349243,0.0035020834766328335,0.05503600463271141,0.09744023531675339,-0.10583853721618652,-0.00911786686629057,0.016005419194698334,0.08867742121219635,0.05514087900519371,0.08396931737661362,0.08933638781309128,0.044402074068784714,0.11543021351099014,0.008020092733204365,0.1043723076581955,-0.01625307835638523,0.07597769051790237,0.04109380394220352,0.09038841724395752,-0.25627774000167847,-0.009596163406968117,-0.016891423612833023,-0.027953583747148514,-0.04002169147133827
-0.076948381960392,-0.06340551376342773,0.06437724083662033,-0.0021366423461586237,-0.09200605005025864,0.0179450660943985,-0.04771735519170761,0.023007048293948174,-0.09042979031801224,0.020987600088119507,-0.00620846776291728,-0.07929545640945435,0.05227142572402954,-0.01389322429895401,0.0753994807600975,-0.07598192989826202,-0.018717022612690926,0.026553809642791748,-0.04468709975481033,-0.017103008925914764,0.03711184859275818,0.04266759008169174,0.0646359845995903,-0.042754657566547394,-0.08651522547006607,-0.03820902481675148,-0.08582530915737152,0.07143014669418335,0.02199925296008587,0.06374600529670715,0.027083829045295715,-0.006436597555875778,-0.06295284628868103,0.03001074120402336,-0.07756494730710983,-0.033044278621673584,-0.001478472724556923,0.07192499935626984,-0.032697178423404694,0.02339251898229122,-0.03597131744027138,-0.03019122965633869,0.08036012947559357,-0.07140006124973297,-0.0006823266157880425,0.04671461135149002,-0.08348367363214493,-0.07271306216716766,-0.062235910445451736,0.03821492940187454,0.04444769024848938,0.02365140989422798,-0.05407886207103729,0.03874964267015457,0.019175879657268524,-0.055521972477436066,0.04920665919780731,-0.022602291777729988,-0.05990895256400108,0.08659905940294266,0.03262922167778015,-0.03648066893219948,0.047769829630851746,-0.07361795008182526,-0.03310682252049446,-0.06406252831220627,-0.07799612730741501,-0.08622097969055176,-0.049064915627241135,-0.04866032674908638,-0.04389640688896179,0.009677864611148834,-0.019472718238830566,0.037239886820316315,0.063531793653965,-0.028100039809942245,0.029846593737602234,-0.08723866194486618,0.07543858885765076,-0.0019054040312767029,0.05388203263282776,-0.04272495582699776,-0.06562860310077667,-0.0016715768724679947,-0.04473390802741051,0.059391606599092484,-0.03476259857416153,0.044893331825733185,0.06113308668136597,-0.019218407571315765,0.05511762946844101,-0.026084179058670998,-0.07009728252887726,-0.04575253278017044,-0.046586353331804276,0.06922225654125214,0.07857280224561691,0.03361746668815613,-0.030242787674069405,-0.020301632583141327,-0.08685891330242157,0.07086759805679321,-0.06409241259098053,0.031349942088127136,-0.0349799245595932,-0.02715662494301796,-0.07790027558803558,-0.08465016633272171,-0.02024676837027073,-0.08470991998910904,-0.01982162334024906,0.08675003796815872,-0.05944935232400894,-0.021310003474354744,-0.0672246441245079,-0.0755610242486,0.04703991860151291,-0.013031721115112305,0.05904897302389145,-0.03973172977566719,-0.030849341303110123,-0.007552146911621094,0.08461538702249527,0.05249284207820892,0.013955667614936829,-0.004317197948694229,0.00179976224899292,0.07640044391155243
-0.02363513596355915,0.05857209116220474,-0.0473218709230423,-0.001576106296852231,0.07527345418930054,0.07582223415374756,0.08046791702508926,-0.09183339774608612,0.01252880971878767,-0.024146519601345062,-0.0023712196853011847,0.04680279642343521,0.05297640338540077,0.02146148309111595,0.0991937667131424,0.08460181951522827,-0.06888791918754578,0.0770961195230484,-0.05209745466709137,0.054404787719249725,-0.08332569897174835,0.04321308061480522,-0.012106603942811489,-0.04702255129814148,-0.030979063361883163,0.02542727254331112,0.10243988037109375,-0.028279241174459457,-0.06015614792704582,-0.00968512985855341,-0.00903572142124176,0.08562134951353073,0.08083739876747131,-0.03230345621705055,0.12631656229496002,0.0010971438605338335,0.07157738506793976,0.007408637087792158,-0.02210656926035881,-0.04525654762983322,0.09469844400882721,0.02480972371995449,0.029771829023957253,-0.07689206302165985,0.09522576630115509,0.08230146765708923,-0.02934446930885315,0.11759404838085175,0.04843517765402794,-0.002855287166312337,0.04944543540477753,0.008231637068092823,-0.02748262509703636,-0.011684303171932697,0.094148188829422,0.13788668811321259,-0.06561476737260818,-0.2000226527452469,0.10358859598636627,0.041350360959768295,0.08893857151269913,0.0012150629190728068,0.10384656488895416,0.041474055498838425,0.07864831387996674,0.045259974896907806,-0.05180112272500992,0.07884246855974197,0.1254642754793167,0.1226857453584671,0.07118722051382065,-0.051496829837560654,-0.007773960940539837,0.05956896394491196,0.09524455666542053,-0.008920690976083279,0.052956245839595795,-0.045719970017671585,0.06481091678142548,0.13113273680210114,0.08206233382225037,0.08161729574203491,0.004513283725827932,0.06266161054372787,0.1394318789243698,0.11327074468135834,-0.0015011181822046638,-0.01759415678679943,-0.03219037875533104,0.04870704188942909,-0.04534420371055603,0.09379367530345917,-0.0044963425025343895,-0.07116785645484924,0.08577815443277359,0.06075499579310417,0.0019584631081670523,0.10801400989294052,0.017354732379317284,0.0015600231708958745,-0.041141193360090256,-0.03620109707117081,0.10567347705364227,-0.0005144707974977791,0.023288724943995476,0.04882359132170677,-0.034935854375362396,-0.009004872292280197,0.10356169193983078,0.14167340099811554,0.043779633939266205,-0.017686722800135612,0.09450428187847137,0.07854194939136505,0.12911880016326904,-0.06171736493706703,-0.006720738485455513,0.10172071307897568,0.01210770197212696,-0.03761972859501839,0.09233030676841736,0.07139652967453003,0.00979260541498661,-0.09927889704704285,0.16255316138267517,0.02078593708574772,-0.010949204675853252,-0.04211311787366867
0.1309717744588852,0.11463360488414764,0.11827503144741058,0.00954176764935255,0.07054869085550308,-0.01595519483089447,0.02432628534734249,-0.07645521312952042,0.014281000010669231,0.00020447286078706384,0.07374030351638794,-0.0172848179936409,0.013673138804733753,0.05209789425134659,0.12646779417991638,0.05202674865722656,0.07573072612285614,0.06289404630661011,0.06773819774389267,-0.008462345227599144,-0.07980532944202423,0.09600958973169327,0.005777488928288221,-0.017701564356684685,-0.07348345220088959,-0.0777987465262413,0.055886685848236084,0.06313098967075348,-0.09562471508979797,-0.009123417548835278,0.1010482907295227,0.02424180880188942,0.11165855079889297,0.11766572296619415,0.023461688309907913,0.0940626710653305,-0.04156096279621124,0.09552498161792755,-0.03660688176751137,-0.03315334767103195,0.01918676868081093,0.0024488347116857767,0.11242102831602097,-0.09681712836027145,0.050568901002407074,0.11038896441459656,-0.01700853742659092,-0.027753906324505806,0.005906039848923683,0.11841453611850739,0.07063440978527069,-0.025877108797430992,0.00868904683738947,0.007394163869321346,0.06271563470363617,0.03979695588350296,0.04984241724014282,-0.1766611635684967,0.07906825840473175,0.07189204543828964,0.007235721684992313,0.07003916054964066,-0.03447888419032097,-0.048922888934612274,0.10581101477146149,0.11224829405546188,0.018596932291984558,-0.0009832039941102266,0.15576080977916718,0.034583136439323425,-0.03859676420688629,0.053199391812086105,-0.055803120136260986,0.02270319126546383,0.0856655165553093,0.00392915541306138,0.020202521234750748,0.03534986078739166,-0.00959062110632658,0.04726289585232735,-0.03304123133420944,0.08411466330289841,0.07694397121667862,0.1060548648238182,0.08379097282886505,0.05200444906949997,0.0009680658695288002,0.05834583565592766,0.03536606952548027,0.06175829842686653,0.06790364533662796,0.013913645409047604,-0.031453631818294525,-0.05529307574033737,0.06250627338886261,-0.04600927606225014,0.14509217441082,0.07939513772726059,0.037960756570100784,-0.06359107792377472,0.08749270439147949,-0.03775874525308609,0.11268558353185654,-0.05342186614871025,0.10860640555620193,0.07563456892967224,-0.04472028836607933,-0.016028497368097305,-0.05412393435835838,0.14384426176548004,0.020455246791243553,0.02158999815583229,0.004152778536081314,-0.03694065660238266,0.0026334021240472794,0.10097913444042206,0.057166241109371185,0.06503254920244217,0.08568619936704636,0.02245566062629223,0.05348201468586922,-0.0380401648581028,0.03511183708906174,-0.05335265398025513,0.12793835997581482,0.054390765726566315,-0.05421789735555649,-0.014234286732971668
-0.023209119215607643,-0.02675805799663067,-0.1629146933555603,-0.09113596379756927,0.24014493823051453,0.12569747865200043,-0.16563227772712708,-0.008499757386744022,-0.10095521807670593,0.08176683634519577,-0.0010269132908433676,0.007345128804445267,0.07940530776977539,-0.10370005667209625,-0.13392935693264008,-0.010727686807513237,-0.17904764413833618,-0.04851098358631134,0.04203921929001808,-0.13327890634536743,-0.03165155276656151,-0.08693913370370865,0.06929352134466171,0.07539703696966171,0.02680974267423153,-0.02743827924132347,0.06918040663003922,-0.0388307087123394,0.0033515472896397114,-0.08487072587013245,0.02677595056593418,-0.05263790860772133,-0.09779290854930878,-0.06765071302652359,-0.20357128977775574,0.02240964025259018,0.017873281612992287,-0.0913483276963234,-0.17303825914859772,-0.12525466084480286,-0.05517401918768883,0.054829858243465424,-0.03786783665418625,0.3787629306316376,-0.18081869184970856,-0.13491128385066986,0.1329096108675003,0.000863435969222337,-0.10035154968500137,-0.0033935734536498785,-0.1365301012992859,0.09067218750715256,0.05412304401397705,-0.021669259294867516,-0.09471938759088516,0.03759017214179039,-0.20082680881023407,-0.0905175730586052,0.019462227821350098,0.025703487917780876,-0.13007335364818573,0.28313198685646057,-0.04240334406495094,0.07054704427719116,0.02157103270292282,-0.19440168142318726,-0.1061500757932663,-0.029052352532744408,0.26434460282325745,-0.008529364131391048,0.03769330307841301,-0.17892257869243622,-0.05251701921224594,0.0618826188147068,0.043905604630708694,-0.01013760082423687,-0.08251432329416275,0.05555522069334984,-0.12661781907081604,0.2661060690879822,-0.019684188067913055,-0.0841255858540535,0.06304842233657837,-0.20712432265281677,-0.17304399609565735,0.0012859993148595095,-0.0788821205496788,-0.07947110384702682,-0.10429373383522034,-0.004460050258785486,0.0807025134563446,-0.016886165365576744,0.03807492181658745,-0.01996522583067417,-0.13532918691635132,0.005258541088551283,-0.07200130075216293,-0.06284241378307343,-0.19091345369815826,0.17756488919258118,-0.10546105355024338,-0.02558300830423832,-0.10568485409021378,0.08083193004131317,-0.020842894911766052,-0.05798301473259926,-0.03030010499060154,-0.06700591742992401,-0.0818057730793953,-0.1920769065618515,-0.2422623634338379,-0.10148526728153229,-0.22992242872714996,-0.04525114223361015,-0.0826752781867981,-0.10417581349611282,0.07055984437465668,-0.04429049417376518,0.03336203098297119,-0.10974220186471939,0.10402970761060715,-0.07784350961446762,-0.010397857055068016,0.023149142041802406,0.1552959531545639,-0.19282543659210205,0.16848060488700867,-0.061877693980932236
-0.10029825568199158,-0.09591466188430786,-0.0863071084022522,-0.0869552418589592,-0.01925654523074627,0.0010166439460590482,-0.03533245995640755,-0.021271033212542534,-0.017647527158260345,0.027623848989605904,0.04702290520071983,0.018615467473864555,-0.04223869740962982,-0.062248099595308304,-0.09082452207803726,0.03869060054421425,0.013078050687909126,-0.024936238303780556,0.009409117512404919,0.06586482375860214,0.02815963141620159,-0.00199485057964921,-0.012795197777450085,-0.048675548285245895,0.032657820731401443,0.059207141399383545,0.06289710849523544,-0.0011140580754727125,0.03228188678622246,-0.05668364837765694,-0.09122985601425171,0.01682419702410698,-0.04236675053834915,-0.025032438337802887,-0.05837874487042427,0.00400165282189846,-0.08410079032182693,-0.10693217068910599,-0.0367252416908741,0.009145303629338741,0.0020783122163265944,-0.01953638531267643,-0.08376714587211609,0.006186337675899267,0.02634764462709427,0.021545426920056343,-0.08689860254526138,0.04720538482069969,-0.004757163114845753,-0.04834230616688728,-0.03691181540489197,-0.0018821859266608953,-0.04003788158297539,0.05331362783908844,0.05223669484257698,-0.010672108270227909,-0.08333983272314072,0.10253064334392548,-0.05621256306767464,0.015866128727793694,-0.06571095436811447,0.04015980660915375,0.05643792450428009,0.042886026203632355,-0.07370657473802567,0.031130706891417503,-0.020921068266034126,0.02389623410999775,-0.05210360884666443,-0.07887731492519379,0.0012497617863118649,0.03958538919687271,-0.08510574698448181,-0.04612123966217041,0.05984232574701309,0.06311023980379105,0.03865514695644379,-0.06186414882540703,0.057914815843105316,0.04528263956308365,0.011648846790194511,0.06440374255180359,-0.09406045079231262,0.006310919299721718,0.06818297505378723,-0.09120994061231613,0.03790241479873657,-0.02121625654399395,-0.09496874362230301,0.027313673868775368,-0.0750051736831665,-0.03355690836906433,0.061435725539922714,0.048725273460149765,-0.06448271125555038,0.03639020398259163,-0.053221434354782104,-0.09559466689825058,0.031829167157411575,-0.05966775864362717,-0.0022082210052758455,0.011192748323082924,-0.058734893798828125,-0.02699783630669117,0.008021383546292782,-0.07394369691610336,-0.06938891857862473,0.008819187059998512,0.01356615498661995,-0.019456326961517334,-0.01682262308895588,-0.02905234880745411,-0.03013351559638977,0.04032274708151817,0.05398087948560715,-0.06589209288358688,0.047316309064626694,0.09480977058410645,-0.016284532845020294,0.01766498200595379,0.07198840379714966,-0.04034864157438278,-0.07471882551908493,0.03472718968987465,0.04484034329652786,0.010260791517794132,-0.034323301166296005,0.03162757679820061
